3.1987425983693
-3.168688500250043
4.020537940759205
-4.2622979408501465
-3.9075218526915223
3.762796641398099
4.266330797987777
0.45257832058366443
-2.4778059411178797
0.28496173567169514
2.83444707900904
1.3162963695834407
-0.055682915375942166
3.3809414296451266
-0.9557429752604074
4.687074151125779
2.572546197787698
3.0486551419883305
0.5401821323700773
-3.1385123155200114
1.6750902852750302
1.88228250659495
2.7643947392319888
-2.6712686770488125
-4.727035614718736
-3.2361683093877156
-3.1439303597852355
3.1236198196984315
-2.8889134580083544
-3.568865041457009
-2.2540746959223092
-4.046493722109139
-2.935645812907921
1.377706220809932
-3.0685690200667315
-4.140143597464604
2.468978124805866
-2.2219700776613225
-3.6026457217874395
3.473463386681816
3.2773447597976144
3.8271235520072544
-4.1495748371977825
1.4108085661973577
1.6688867491178696
4.167552551951703
3.9707838199441383
2.3291913049941915
-4.70249042562373
-2.562794440448698
1.2172584033359755
-2.312169919126781
4.015131697419715
2.611630233752887
0.6699930950433988
4.943358430880455
-1.9141460216444282
2.815280321822944
-4.921802857327555
2.183660969004057
-1.819653387821604
2.9307167352743155
-0.6098959346188586
-3.7788171228547873
-0.1987055971018057
-0.6358143039515731
2.1822766911937226
-2.1909502224113586
-3.6580485483889214
0.5012582390007765
0.813073579041176
4.6919044032398975
-3.575678898501833
-3.0875545887874134
2.552852488362495
-4.268296856182766
4.264493445392327
0.3640526048174415
-2.567229602518416
-0.2768643881272599
1.0681134341144158
3.3378523641955997
0.5358690449293064
3.5313258107010963
2.869643788596603
-1.1062750862185364
-2.007293680238811
-4.789975235441634
1.4828930916051988
-2.7600319783838714
-2.0574844698859804
-1.1973222739989922
2.580988565768471
-3.750180021483799
1.0246531815406534
0.1362886898017157
1.2585803481729112
-4.278586462548631
0.793099031060919
-3.866677750770977
2.1179027255156635
2.2477479638081093
0.13475005775448956
1.8561343746730605
-4.531098163413283
-3.8513484753761205
-2.405857788914197
-3.9259676689802703
1.227055732782861
3.196064113539757
-3.3499570751529117
-3.6281963905625014
4.103579940190279
-4.523708493561644
-1.1290217823058146
-4.57982475062061
3.4745236918339373
2.344385330603993
-1.1186339804967558
2.521201159104346
2.2724209190512177
1.8902033629864148
2.265584949573065
-3.403028609885068
-3.875638862992168
2.994131521680351
-4.142184593335362
-2.9484825366725187
-2.1342420597843024
2.4277967983745743
-4.909530116082625
4.634595870539295
0.7159994362052728
2.4538712802567897
4.984537605796142
0.5408401148068034
2.0231321459751967
-3.176273504293856
2.0217842860469695
2.8509578887118012
-1.6306969974677243
-2.4913948772540104
0.5620902885328372
-1.7606559873002725
4.236591020555853
-4.132171559616278
-0.5441179712427724
-2.0727510908800086
1.8001200963094108
-2.2832731833421107
0.24676596849169385
-3.9986622244027115
-0.743425350821985
-4.095304057321202
1.6198094005475516
3.145451856391661
4.966700074908191
4.313693965034023
3.7186428482050324
-2.8469266990599573
0.6197034051401085
-4.838570295322098
3.2479278078157705
4.0819882185828895
0.5004603358941413
3.809163933319139
3.663802591388075
-4.6631786940434985
3.8957719524910512
3.671030313577962
2.385790132307055
-1.2814449845773401
-4.051846635690259
1.3958858492326218
-0.30584996541041143
0.263652643970298
4.808933003255243
4.641590909824721
-1.8997251880231625
3.7571723579082956
4.900305797468723
-0.39286861442501486
-2.5580514648823494
-0.7318273631137293
-2.5891013575309305
1.0981338838488668
-2.7196171699179827
-2.8776106222247755
3.0262057164224423
-3.0807088730641685
2.8530783222085008
1.6007425571637954
1.5833041512174875
2.595191023486433
-2.1935325947606286
3.20384449058251
-3.1409277797664825
-1.9577546730132802
-1.5826048161888204
2.419516379850954
-3.1042262151209377
-0.6638746988034727
-1.0714445906861703
1.3943233361082576
4.536635101111466
-3.50141677920445
-0.6998859502315096
1.101789235524059
-0.3544134809066506
4.516654567430965
3.2551178839911703
-0.6854399560608275
3.4867790914080388
-1.519545972260449
3.2872683759575096
4.576233161421467
-3.1887699874094455
-3.358881417576134
-3.364734111553215
4.200375230786994
-4.48576676129142
-4.8749824922627045
1.01695198121761
0.49546489490175905
1.014781365496427
-1.7382144262722186
-3.2712703622745574
-2.6818637459043693
1.7382238850996359
-3.1713392080855196
-0.9683603641769887
-1.9637507120193733
3.3700393500205443
3.8952231749079136
-0.6492254356687948
0.8030085157307534
-3.6657833607635926
-0.17448546728457526
-4.620692250524537
3.4912866209172293
-0.096270157745594
-1.4843029157479726
3.5389178567084816
4.357807203736645
2.8179828307139694
0.9706527567276204
3.434070732869916
2.997892970862698
3.3446424552376772
4.849917725201244
4.8952421740937275
-0.3785884588543995
-3.8785315760670236
-1.5024626340605165
-3.510822690919171
3.6050698181487597
4.777157859180646
-3.819973721787858
2.6479507235230857
-4.022200406449604
4.504557501232419
-0.766198139877682
-4.621701978417082
3.049808344514581
1.231183571489006
0.4200672302195425
0.5695589938585419
-2.5665368775770925
3.04984036915444
0.3907745207511546
0.09538484517428358
-4.586868269415013
-4.488340624728626
3.5801175121931657
3.8839468646479975
-4.602167613155256
4.470978226354644
-3.560490675640142
-1.62299079574576
-3.0868453402749285
-2.9205098924671735
4.492529634637677
4.1549679730909475
-4.14776463642214
-1.611102397889832
-1.0359277955442883
2.530195190829186
-4.371925532527261
-1.4497355742379248
-3.563350670749453
3.1332232790453673
1.6368233519484416
-2.977304779494232
0.021052320967804405
0.5607750971119119
4.790392968224836
2.6004583678399573
-0.9564421521238211
1.9190137803284522
0.6256946167783237
-3.588207150399315
-2.7454643616745633
-1.514193186454329
-1.5522069394288138
-0.06047417333190719
2.1326256293182055
-0.05881677828300802
-1.5855301896575078
-1.828681109799395
4.025130338186374
3.666360654383782
-0.5147829019885215
-1.390361132358243
2.9251321710848943
-3.9048794025695077
-3.976278594801866
-3.434941936457412
0.0694444418965432
-3.1952657950518946
4.525604756375985
-2.8188083504311945
3.0973739080622362
-3.420285307246209
-2.398279369412645
4.439386190190826
0.40966413982400063
2.5370759962038445
-4.808800239450971
-2.6811553714544
0.6391885829450272
0.4988502383579494
-4.094552069295404
-0.5767447895756614
2.142149427128315
-1.5687613772001896
0.7841995696845103
4.5408033679720745
0.6396765102222046
-0.8496787713360341
0.6292439307978723
2.281665421370035
4.734728477503364
0.6767970474200657
-4.8896567418607315
1.3354099192367874
1.4810899233416404
3.4536707711612955
-0.010740756440386079
0.3444064132498461
-4.977514255832877
4.216257614501652
-0.6346539902543258
-0.3585331130689804
2.4409354317834273
-4.558202237838135
2.386726680923669
0.058417633298385674
-0.06776866610527588
-3.801033974025021
-3.6185641497257204
-3.0381610907006342
3.3604888611791903
-1.0999926638142243
-2.6373727274141014
-3.3177762547723813
-3.810070332624398
1.154785109676605
-0.26021519571775986
-1.5559482379780465
1.6242995962617277
-3.9183943931840415
-1.6458914290508933
-2.699957157758537
3.247966492216449
1.7675491519910498
2.7422805351138555
2.1825119458727364
0.5167559052441426
1.2983675302782043
1.415289692553344
3.5358697401586543
4.38161917867291
4.519989082531152
-0.6057933476672206
-3.9808745306720397
-2.6872970205625557
4.043331816412877
-2.706458258952138
4.462942301498069
0.3765644795469081
1.0352380809121051
4.602500063202648
2.7137059822471343
4.903114901004198
0.05376297960221965
-3.847659510147481
3.8595666650520286
-0.5978098562882543
-2.0461024980258147
-0.3176150018316246
0.9293120681666176
-4.233775878281525
2.3520394223207006
-3.7307774074851006
4.426465747536268
-4.89884386567949
-4.1836821396076544
-4.322296318470831
2.8771083683561276
-1.1817348808876904
-3.3978438950378855
-4.21483434408044
-2.0578278315483765
-3.5625353956224792
-2.4543263630686196
1.7693527954617352
0.3523835820445784
3.9283715163104933
-3.862134953975571
3.962468168518713
4.948432425520501
-0.2336144689075681
-2.770708933689794
2.294156222291556
-4.197870249400015
3.4001294921931073
-4.076033664405135
-0.1894634331055638
3.741187253638369
-4.429435673205299
-1.5811040185349978
-3.6887148881115883
-0.37319050324496494
3.0352278718619843
-4.880478828463022
-3.5778523428652678
-4.542538599564384
-0.43532717272027455
4.12398683376265
-3.008769772694524
-3.6183175338901927
0.3904918336514438
2.0595542945407246
3.5193703143984045
-0.8773587926415702
-1.9907111603849592
2.840842520421476
-4.11545924365086
-0.4140748350251062
3.9798676899875787
4.512207135638551
-0.08159148440687769
-3.9047150843584797
-1.6378652247647163
-1.2592047603485779
-4.245523887630121
3.7308286367770886
1.408421444144416
-1.6685246051257616
-3.6541842874814234
2.285975808766981
0.45014485371489776
-4.633949222481341
4.581503333017558
-4.283677186811348
1.583621444201297
0.3609002688612071
0.5957108861869269
-4.323263612917019
-0.6174792578054262
2.7266503428253355
-1.1655272067045672
-4.297420333743794
4.336728042631584
-0.7243918018536366
2.891975543848135
-4.177459287605946
4.6339114964769905
-4.493192810927259
1.7256698828381367
-2.6138468477783325
1.5738498471837614
1.6568864094230822
2.482245853012543
-0.16749159812326653
1.1617863616614033
-4.798692522150171
-0.944741376673436
-3.738876342049031
-1.1347340930938579
2.056836455843392
2.439780600308106
-0.13283142018077232
4.193719799006077
4.997286312043057
-4.690931211539891
4.181249015583351
-1.7731113365039866
-1.5050173047376072
3.461205160757588
3.7630468404247743
0.09404502012789617
1.6750702734255443
1.4484140252201918
0.7444175284076611
-1.4170154735953178
-0.2301879297842877
1.2423001304265977
3.295200390356781
-2.511540238944864
-3.8117130301258872
0.6652979733421818
3.6274945285272935
1.5776342969915937
2.5437069468476805
-0.18269060612523536
-1.737227700071383
1.3584514670474483
-2.9535162004967996
-1.311952671015968
3.1871154100089143
3.7683581744019516
-1.5462798176667656
0.24752426904438263
-2.45069388251291
-3.075328636321506
-4.694273733000277
-3.703375601938166
-2.7897813074310687
1.6942607840006074
3.5123880807603314
3.4042832844313597
-4.155319295592015
-4.153582020544632
3.5428634773457652
-4.261426783123746
4.873904071073408
2.2881995769206487
-2.8992890529466155
4.968870184957892
1.769020253541096
-0.12379527964191173
1.2617762403908204
-2.1738690462223778
0.6565958222687405
-0.3121259656534807
4.7548158974400625
-4.132893649198794
4.776099853090752
2.291389972518872
4.9509497869778745
0.09135750419799571
-3.7926630656462623
3.560447515327313
-0.3909683861254285
4.992735647099257
-4.82866202914611
-4.00104622495628
-2.8518563187447956
-3.768988865027436
0.9297717409230959
-0.5690837650824943
4.115972796447638
4.8427817815195375
-3.3004475930571053
-3.293956681336221
0.508782220428464
2.574550102375789
4.82332433745589
1.7688858717878873
-2.4324324901846395
-0.011736878557556452
3.412389460155689
1.6666877083430753
-3.6619612996583486
3.831173566591925
2.130863169774865
-0.5028973257901956
4.873830244461491
-4.623179615199086
4.05517462646797
4.761942624462346
4.430787420863441
2.890581819143451
4.8203368606477905
1.80913706934213
-0.04392930039971521
3.2813323274327413
3.118483538818559
3.725861256251152
4.014513470399484
-1.3993760117179113
-0.2994116749796891
0.7582156841851635
-4.92592255199174
4.8778273014019895
-1.541190533471839
1.4482693916048506
0.5585296853955901
-1.9613344519025055
1.2015442219170192
2.8571780301075105
3.337194901197936
-1.1803218137758376
4.733253885500311
-4.218356366077293
-1.2123269406809456
-3.2366215544168564
0.47292763326951537
-4.946744858781703
1.057183458375289
-1.4697269738685161
-4.931472553813373
2.269617573223778
0.6253804041171591
1.9740842380859647
0.4903220529603409
-2.6614704399306612
-2.1266570701239775
1.5144882579404602
4.2578108062181705
-2.8954731555588564
-2.659020747254839
4.259912555812077
0.9424384461104918
0.3055195117807319
3.94743092723761
-4.061020872609745
0.7664989100961002
0.008350549871535051
0.0637526078392483
2.5874034394833476
3.5133143876735353
-1.2775940901710667
-3.190841202441473
-3.014188116210642
4.873523975260332
1.3710115060694221
-4.065676549697161
-2.7645466480780856
3.9602418584749035
-3.8873280629024975
4.571089339484491
2.6598305073608364
1.33836456916963
2.7903495965403753
1.9356113649261717
-3.8106502426499764
0.4880247226591452
0.5110526318537492
-2.6118095551571074
-4.8792152961560635
3.2651124468944186
-3.0512721087713035
-4.841572411733525
3.096382774234044
0.20559765561907817
-2.2967043505064977
1.5964629833596353
1.4088337308460153
-2.7860744998730858
-1.1328324943039636
4.938312724530769
3.005409721685572
-0.44413230239713997
0.3526271768641278
4.049616317307995
-3.2483478269091393
-4.126557430231459
-4.330288572708554
1.8446763427484694
1.2941681942612036
-0.5713717756589132
-1.0546523670343912
0.8566899490612307
1.486470116708122
3.7434206841892266
-3.353626907252841
3.190510289167717
-1.529515366249583
-4.99981120196664
1.2367720668588857
-0.3043358859588139
-2.3127500785065847
-0.8393841760988607
0.9545964580214559
0.3187661550252363
1.7563524366501984
3.062715319894153
-0.09900358423592248
-2.7263058432079457
-4.786569133596075
-4.124474894695074
-3.1977991134073536
-1.0686240043623574
2.6753180114356088
-0.10443226782928772
-3.2700082598247695
-4.642039227292008
2.4035187674621072
-1.5697994830688247
-2.5749734890210805
0.4450955359966091
4.0223206284153505
-4.871662196751756
-2.65849793466208
-0.9182552828952222
-2.201224970788991
0.9853581711362525
-1.5051486773497258
-1.3914207979214632
-1.565365640880716
4.549589551691028
-2.097371437683031
3.4989857852542627
-0.8195853419568238
0.9288105828557818
3.102329525766324
4.681324881506523
4.564007996213382
0.8333590960830186
0.10489546106807435
-2.4203331211093926
0.2833263074024437
-3.479617294584095
-1.008083236793702
-4.644492732456201
-4.201384184371363
0.19109522352998276
2.3023125597073246
4.831028309496023
-3.982864027267942
0.013410222557356022
-0.5711439716608062
-0.1856052168303215
-1.1452128145653906
1.2211734103754823
1.664032029242084
-0.3236766898567218
3.4059853404789955
-2.0932048556433203
4.861043838609056
2.47502777320641
-4.005539085615782
2.2114502196829715
-1.8582279614718669
-1.5591418086774702
-0.525335400342577
-4.420443228950858
-1.2472111207766288
-3.171178972850688
0.5392087734443285
-1.9438298616499319
2.447389623763475
-3.030789252638103
-0.31899175714582384
-4.3800736580093265
-1.6564104804217736
-3.64862334608109
0.26540192399683615
2.9823314822553453
2.1289838891563884
-3.08958194719135
2.583084017249197
2.3966157543689173
0.9411113422086999
-1.4161029762816546
-3.886869582770076
-0.7273225992781089
3.986472525644494
-0.03863569907022413
1.9351120410590115
3.30232133995813
-3.5894564258389607
-3.4817264367333056
0.8396388864201585
-1.9331524704624536
4.737855122071869
3.4729458528655854
-3.415266243166186
0.7727023559012993
0.6710883284100033
-0.39630664465523324
1.0911208618064805
-2.0500593153291047
-1.3168769866565166
3.634008091754257
-4.951881046803282
-1.9231015541202776
-2.8811883823669415
1.209155836987633
-2.357254750164739
-3.585511821796773
-1.945110566388235
-2.8532141745362583
2.4174261528557874
1.9812329676142433
4.226279696167257
-2.8627918053853243
-0.6500962974311744
-1.872617951287162
-0.617164743827213
-1.5008843624441348
-3.5687038334213095
2.4438609404970375
0.28036354487520043
0.13366363796445047
-4.375255817210691
-1.7586229145458976
-0.4803057859788664
3.604987423028623
-4.888898493792996
0.6605420032276497
1.4908303766016706
0.5344239264400237
-1.3884087462341208
-1.8618688927625704
3.8575514540577345
3.506467908893409
1.7758663089227422
0.6568637929799053
-2.003342024362901
-1.5887529152311721
3.1936979938570733
-2.7379336773847482
4.9389108011973235
-0.8506919428575799
-4.352471530612788
0.17414501400520166
-0.643459110439605
3.8475483616230868
2.009296108110881
-2.3927902380059693
-3.5401650834663565
-1.0325138350635523
-3.7086588874539848
1.5811767929320286
-4.425949071891542
1.8324809673719553
-3.3894297814413923
4.225505836657348
2.7009770211448654
-4.868841118015281
-0.19848190500396345
-2.567585525391868
4.857769965920893
2.3604525520485966
-2.7364706169932362
0.5091897562275154
4.08580856361875
-4.713610132658836
1.2106991183287104
-0.015480783861091751
4.321816382307581
-2.2544905980018823
-1.5042471312749317
-1.930964156320214
2.5221262887094262
0.18536160255941425
3.8230199388359427
0.7048333156380426
3.41221054069557
2.395298495269641
1.2126415491395797
4.983833458233942
2.712071164622138
-4.591765735605302
-3.878744497930006
1.3789825644182212
3.904064279311017
-3.292801530048217
-4.497855217219228
2.4635839211868547
-3.678146146170387
0.8755162064170916
0.5115724784848847
-2.001945963986287
4.291235654644886
3.6473390291259307
-1.6468743978482268
4.4949885221692245
-3.692237790692544
0.09401874754111539
3.582484390735381
3.5162797815481888
2.0004698417267077
3.946251975666552
-3.3810561748171875
-1.153204093264919
0.73931024311928
-3.3124559963943225
4.558611331025833
-3.683667189904587
4.8751390746743954
1.476960104226083
1.5485761976490142
3.369097477591316
3.994063354300039
-0.13593682422617182
2.5428540073487147
-4.106415423643677
4.2732398180733195
-2.120208047062154
-2.7370268202443104
2.6440178119168642
-4.1825359281095675
4.616697887002005
0.9724855529152023
-2.166209630538103
0.42959671721630066
-0.6244525497313482
0.5757210705761375
-3.176457081520281
0.11978624265070348
3.865740831650264
0.2737307798934685
4.381463593574139
-0.137235803875849
4.252587796644132
3.1625211986691966
2.8501759180284214
-3.3021416083902566
-2.1746422939635868
-2.4197233853711375
0.514384705981251
2.3658420611177284
4.09966432390139
1.590261771927631
4.80977964021932
-0.23608225803188
-1.0443919252822065
-0.1517508594721928
-3.1106971197517264
4.795512618031015
3.8342732461026348
-1.5529923678259703
-3.322658601195412
-2.5474659180373562
-3.3224989697679352
1.416150875836422
2.9572548209039207
-0.04075840059365543
3.0556566127238067
4.503804496732403
0.6502133255471065
-2.688644090524137
-3.107157298190165
-4.728470455234026
2.7997222076134616
4.7476029184387265
-2.1693344197951037
-0.05083462087737001
-1.3573169830950258
4.382578444392459
0.1675620039813177
3.970042804225992
1.5712074782256646
-4.950708441576771
-4.815950949271165
-4.35182947668822
3.487448148798041
-4.371556814399336
0.3290187112018428
-2.9910338934792104
-0.8544011056651568
-2.9612242594508476
-2.586172163466942
-3.221000545205732
0.741810001547579
2.4204349984497036
1.7278599715951959
-3.701291401153756
-2.164553343711507
4.310052585676072
1.3216166978139263
-4.8689008912223795
-1.5495897801154213
-2.9849050675373934
-4.553622971841701
-2.8181993198453803
4.354317551153514
4.673322608244781
4.15943074681449
0.9390739853487693
2.509521284662652
-3.812714499739055
2.07534674542228
-2.55066073649318
3.551205262988738
3.195849939148923
-0.7110506935121963
-0.8512034626662803
-0.24840762300086539
-0.8876543952734481
1.6830890810541046
-2.492067976664676
-1.2368778498835784
-0.026933273292035764
-4.247734242943938
-3.6526242441808576
0.9698083404284317
3.8979594435066183
-4.3078344637226715
-0.21295306771684785
2.23725754818791
-1.2006702731029737
-3.932730803427227
-0.5502356574946248
0.44007717841129157
-0.7885943633217405
-0.20498243314463238
2.9040403235055408
-2.4439311574084543
2.4861378375780054
2.3830571117365107
-4.169159506797743
0.7594459351571583
3.792560794898346
4.195143385638859
4.126670014506864
1.2422909010554246
1.8781151059699406
-0.7353456916963381
4.748814956832572
4.228692885793295
-2.4193714912943665
2.053585336914794
1.2328884384130614
-0.9372556962298271
1.6849071129093431
3.632109983176953
-0.10826859839665115
1.9805380707393452
3.0156047206206473
-2.2563100618352427
2.201177826046681
3.764747899580934
0.18640025654345838
0.09556738038488355
-4.392217105739755
-2.630392922372886
-0.24842813163757604
-3.0932547893586615
-3.1373716655779194
-3.578060241336453
0.7278745210496336
-2.2477304298745615
-4.626274606415911
-2.604240191248146
2.6976486411784553
-1.360474323316315
4.583544318380229
1.423723461804304
1.2237812726405908
3.5029096592866082
-3.633486251158163
-4.537494886322592
-0.9863483772161628
-2.4193013176259583
-1.991944101739124
-1.4613168599794046
1.7838288238614908
4.301427765664606
2.226420559413186
-1.7378941479055312
1.6657444817561302
0.3506195622296975
1.5775266316112173
-3.4535312030778123
1.5911474854097563
-1.358754950933101
-3.375951660050951
1.2448307717194327
0.14628194545547668
1.6361841791478078
0.671560169431328
-0.7645632547222805
1.355148653328703
-3.637157496689938
0.30377400356102413
0.14630934898036152
-3.673135670571075
3.9376352577448834
-2.6814530642125636
2.067142989389927
4.954401790597927
-2.725070282644011
1.891492679505812
1.479997928962625
-2.503588536660617
2.6963969109422417
-3.417553358313289
3.323651400841607
4.269175138344103
2.4724494682129965
-0.1347174057013092
-3.826578190002683
-3.514012071119806
-4.348227127308507
3.6930694468198144
-3.328648849671345
-3.094251155662292
3.2038222356298007
2.8775581943723
2.2080089986914224
1.5693739675539256
-2.8656995762868287
3.7163672820037483
4.5127204774539145
-1.3715734569705065
-4.275417702539092
-4.541787347594237
4.063513462613921
-1.213362282091257
4.234241851531818
0.197492951806586
3.9356364561800987
-3.699925058200406
-2.5319426787566632
-4.181539254256855
-1.6193051057398078
1.8193647062457785
-4.033600990557451
4.983110651382731
-2.691951233091224
2.617393919349336
0.418279961652507
2.0157975458357127
-4.6859017721863605
-4.410162765597612
-2.036922532322115
2.5082221427860922
-3.404589697126444
-3.188160106942659
2.9529063721822766
2.6484752096274544
2.719148739364784
-4.487409574383695
-1.8822308508606467
-3.0121311190014524
1.3386793300409519
-3.2631389238495343
-4.448179528880086
-2.1442544565909527
-4.530102896667378
-0.4682965294588133
-2.308436393620755
-0.7169290535814348
-4.001982589285866
1.8930995193390485
-2.729989950906427
2.1994221857176193
2.2463470647949366
3.046427087557671
-2.778716558320351
-0.4940001072075493
0.8335520184301188
0.25634996590500947
-2.679196318612221
-3.5328566461749444
-4.496856128644415
1.0528162832619454
4.922454688189395
-3.509958294582786
3.0783122269221312
1.7917426123904718
3.262543052846823
2.500545574914791
-1.193707958835005
1.9523192714864805
1.6926300349204002
-2.6001932428684063
3.1918987274340367
-3.574213109989175
-4.162305457971521
4.575759359130187
0.2057638206130452
2.2278485250172917
1.2827837212767363
4.45458201035472
2.127252125615727
-4.194324429597598
2.0926723599587937
0.6571185761066634
0.8695334420977474
-1.0225479466821064
-3.246263749530459
0.7263688086282762
-0.7934831426491744
1.9713283743025958
-3.586764677202765
4.128556633659738
0.9850887715734675
1.6862112822032742
0.3832135975384592
-3.7408998727821476
-3.381965695934208
2.508021303210465
-0.8000421280496726
0.33237195215584325
3.2148285118232724
-1.632612648270447
-4.429180629621311
1.0043220001373676
-0.2123276848644986
4.378032404121159
-3.7086058408937603
0.8570361209373782
0.8745907830939608
0.20848931078183863
0.9838379524257013
-3.383386674951897
-4.6465924108738035
4.268353970661277
-3.8729834719249667
2.3006718557895303
-1.8531645382405895
-4.215622717888189
-4.241610149219123
1.865228260424173
-3.437159914021218
3.1895435476576512
3.3495250945862836
-0.4835489936209738
-3.3820277120428397
3.151884630432791
1.790775876934637
0.8132900966431276
0.13321169393636456
4.827808541193283
-4.187937129849431
2.404825758614612
-4.727017081951347
-2.3679770431094216
4.985989675013421
0.48887177497500645
-1.819918250666702
-4.656706938587304
3.142496365794642
1.986006735867604
-1.0271269693765728
-4.651723054396038
-0.6062263649033373
1.8429274948930559
3.503648269271185
4.202336541084973
-0.7919040207159949
-1.2871006867510104
3.7146908721832865
4.459067207290243
2.707234124353989
4.149611884721903
-3.4440782805913486
-4.495609979678824
-2.2360704760951022
4.016385303776735
-4.11677859751666
-4.618517575490426
0.65912985873676
-3.7644271769421342
2.7207476285132195
-4.042289665067242
-0.26912327354521093
-3.0220454297302126
2.5805817774702398
1.9529275966656554
-3.2478684377231515
2.1395642464983258
-4.067346893751438
2.1530826710094564
4.273327107753817
-2.7322120273228667
4.303873640703737
4.256929065892036
1.7347443341274884
-4.337443858128457
-1.8920773235724644
0.6014160663306729
-2.4396606474206073
2.217447747524334
1.5613326503895344
2.1444302124813275
2.8454193611046117
0.04038720692413644
4.966362066754643
2.3140677419109803
-4.754844932542614
-4.224234682866928
1.340886815792378
-1.7037330316391208
3.9793603962385617
1.3650595276654727
4.105536429204461
0.4331169990348407
-0.5007366233410089
3.384968612762446
2.8407065357998533
3.4189461595907247
-2.931502887050097
-4.948231384220224
2.752632415913631
-1.3471596048266363
2.5319269955854846
-3.8132420598754777
-0.5432264843004386
-3.539588079624295
-1.2326682623850829
-2.9660125271684756
-3.7958956022950674
3.0541097191952513
2.204271812992326
1.8104121181345008
-0.7699473013608937
0.5295225016148333
-2.6495145110382445
-0.2677973758781693
-0.5824038334860955
-1.1450984116176253
-0.08804850390212593
-3.672609046479768
-2.394965533205257
-1.936259024277435
-0.5855528406718582
2.1808728202235805
-4.988505993985307
-3.1592393642173366
0.06793310235797545
-2.712784777370274
1.1277086733357935
4.421233072004112
-3.1922594806667117
4.9347743816120175
-2.960356802054205
3.316542349989513
0.05295760402602667
1.6685300696110286
4.268998483180086
-0.9963542191736146
-1.0103550511380854
4.2881187059045125
2.315720824795134
-0.5576491030392337
-2.668426989254508
-2.1502040319817404
-2.0240531245324234
-2.323619637480827
-2.422952465456315
4.045448389676627
0.54609925534879
3.398065622989227
3.5240076027408307
0.44316802708087266
2.7151557644024384
-4.758515791796695
-3.4756520984337866
0.20112651190104458
0.2503938698253325
3.0348919529494687
3.071470499537794
1.7617613012698126
-3.9714634959718733
1.6794131815614595
-1.450210210831603
-3.197892482577007
4.8906935401577165
-1.7700135351011426
2.39598233647434
-4.034451508385196
-4.10533108160389
-2.651355948996852
-4.296386568490339
-4.548111892584784
1.1960187703465595
3.2355599450252495
-4.012154530161328
-2.655507696708097
2.5486690738549385
-3.233861876679114
-3.097906543099561
3.4263916230432727
-2.0670868392061115
2.928270340416443
2.171133125902913
-2.106013223905264
2.3830522901605535
3.8636997034853184
-3.8869538902494085
3.603274675117202
-2.2353315231156934
0.7950469885203892
0.8822307380958891
-3.077319941342027
-2.9103873096596033
4.557899974229761
4.050243676485968
3.6451129851840065
1.1436571476427897
1.6729126273341342
-1.7767748758291955
-0.850866421223321
3.7027684481843686
3.6916007722046036
4.137415583973629
4.234074251109734
-1.565640077089021
-0.6948497436799261
1.3627337849211525
4.497850170898705
-1.3413905635232348
-4.805489545841017
-0.07229138004724245
3.67989095973355
1.8275470086587822
-3.5013823796260093
0.06043948557142986
3.692524847731546
-0.7079812058183528
3.9680094015288727
-3.169916570656829
3.3881185572199293
4.322117628753121
-2.8907987722205863
-0.9300417104455461
-0.7236087199509376
-0.4999882316599553
2.1524823240272575
-0.9671718189469258
3.593738940837035
-4.055135176228298
0.02444314106218215
-4.235223860936625
-3.1036807098823225
-0.06559191261208319
4.314912706014056
-1.6439395923796516
1.933262343236871
-0.725020405150997
-0.8257679510787668
-2.667685726015211
-1.343217390813912
4.455778960625562
-2.3235516523420308
-4.915198982670504
-0.28907256152402727
-0.3462910755662163
2.384638955732642
-4.800488885951407
4.043812459946306
2.677073819419032
-2.061599143368862
4.817763194357106
-0.562465624510998
-3.5139920163561533
2.689555701773644
0.37116226218956694
-2.493408290515342
1.403791099157968
2.5009396765721794
2.5829860539115526
2.7083857093502983
3.8305544475471347
0.9405530383226175
2.7778198560569303
-1.09386553082195
2.593415551172736
-4.517215714025574
-2.26113727217418
-3.9810201782259536
-4.075541758369151
1.5620163665898765
2.1441258209739473
-0.7615053611110394
2.7473477945603895
-0.6010758860582275
1.1679549804282718
-4.5099888196253755
3.947579951603757
-0.40989824356716476
-1.1351556000786909
4.529789654369296
-0.3556451280930837
4.080710301935376
2.490622017429324
-3.7043188014277506
0.9687843160979215
3.0820509850694915
-4.008421363818223
2.0611235365430014
-1.425853851478276
1.423813901526839
2.461170478495176
2.0545896798717713
-4.163959459301905
-1.7641661138989728
-3.6059056872608886
1.2746244502352937
-4.540185488881247
4.594036961625408
-3.4635542592423585
-0.3251302284349977
-3.5150221588960893
-2.4988745362247347
-3.089139710920894
0.4791488544114211
1.8562024847271683
0.47534208862527727
4.060355835198116
3.3272492331362074
4.5962962207956455
4.695775838610306
-4.5447508622830854
1.7969891621179244
-0.4979554587404378
-2.032061106273174
-1.7696204980435146
1.805239532817902
-4.010502302852748
3.9000647341484687
-2.098105706600496
0.5276511666987389
-4.736459085128997
1.2807077582665247
1.6957536260065256
-1.4455295024351535
-0.8498468402971993
-1.9423670298184748
-1.9416584805712658
-0.36430684643665323
-2.684824230017915
0.11285204845107089
-3.9415613165352648
-1.2060207374772682
1.325142696292004
-4.875748690951115
2.3809169534983097
-2.1261444260447773
4.329234699581733
-4.019937401116622
0.6003854937584308
1.388437060152227
4.724509022779003
-4.828188022182209
-4.0389697691686575
-4.592564202418867
2.510681765923777
-0.9345636445886463
-2.019891450207915
3.572655504222043
-3.2249353958887417
0.37897690150854846
-1.0072433584189144
-4.159023478576791
-0.08751279313057125
2.746329636082957
0.10615906910015838
-2.489062386773915
-1.9664520718925296
3.00992224084521
-2.4900966657127634
-4.09391857878938
-2.4149529059999706
-2.175752215168906
-2.6697126302614493
0.778006932523347
1.5478077086728028
0.32799346165244003
-1.4940168885155911
-3.5341188614134422
-2.4669558688256976
1.3556314507129823
0.8203220083908649
-1.9800901296911477
4.521858912268851
-0.09386076827750323
-4.83082073264128
4.567009828955989
-0.7833773671692601
0.33767025780749726
-3.0090030735539655
-1.2211984766469532
0.3027279019946949
2.075588534614109
-4.568309476679353
-4.771829506806804
4.7410293905081975
4.312158282619107
-0.44153560413910675
4.304338095726122
0.6955261571810611
3.992723028014293
-4.048133563727877
-1.894266909218146
-1.8454853414644026
-0.18243275181938934
0.6811791067678774
-4.6750579136652695
0.7379057978429318
0.5554146346722666
-3.970864440315187
-0.7367768759669344
1.251448028893531
-2.9539012252527295
-3.432452355866693
-3.0386496891230133
-1.986151565748464
4.828276858615576
-3.2579176018010667
3.7527046557134938
2.171986825355826
4.9295724549340925
-2.392579286935046
1.1107704391847326
-4.546321481588532
4.923973468914641
-1.3651795627463126
-4.638844283304553
-3.03815825286351
-3.950095339207417
1.5268365308828162
-0.9219430389624952
0.8910236732823682
4.2750450134877465
2.379469926807597
-2.95432623521143
0.910586662106077
-0.23075135951826198
-0.37430217816576317
-4.390543636306624
-3.285983025771937
-3.9952326887172473
1.8987487455008543
-3.509004926944037
4.925809880370766
0.3166885260443042
-0.7085288881336025
-1.3016776671827701
2.401516622145662
-3.932105756711107
-4.145066821450478
3.2996494198847657
-1.686289671607346
0.4537556769614568
-0.9919312414564843
0.4607837742510217
-2.0628206278106322
-0.706222487848601
-1.995521736286039
1.4223540525700642
2.030477538159378
-3.1404938909240454
4.196306094557707
2.1524553381184663
-1.552130840741841
1.5417332778398993
3.1049379658526135
4.318316168371757
1.039755140983754
-4.121181762183852
1.8710866227580993
-1.114310839813537
-2.456400451956151
0.9729175496756293
0.6815164589146754
3.3438907574181336
1.7000788277624483
1.0276232854113312
3.674208820637041
-3.0293585497080477
-2.1983090894466537
-4.387947094184699
0.12438716934982086
4.077402430815425
4.963505914440002
-1.8380285249668615
-3.1623521494990356
-3.1640584939954044
-2.6107312809980208
0.42817927182075355
2.566071689732854
4.75732985861208
-4.415985869012916
-2.2972150443346906
1.0801533803036358
-1.697292437848822
3.4699348931183582
3.2316238728302284
4.647507689981893
-4.411163228379335
0.7425890702142315
-1.7886928117012912
-3.6442424132707982
0.6819720522954587
-3.335635395940264
-3.846051861293768
-2.0245484065499983
-2.3771835555802987
2.6257140376312655
2.13030313829944
-0.6373686891246813
1.6664915306749872
-1.5916062003566522
3.6777578149563563
-3.6567748739952046
4.120298558620821
1.5818428953137076
-2.4503522807033673
-2.9207193618071345
-2.574195966095499
-3.1413545467674533
3.1189327835315304
-2.9787502482163672
1.8269184687865234
1.7599915777074742
-3.078985828323655
0.6796240755059815
4.538778825164165
3.6366721705520444
1.8767645481368138
1.383156904851683
-0.15241300681171221
-0.3507854585827168
3.0857108284031938
0.9400405054874517
3.06922590967903
-0.6721239246880684
0.5945921370924143
-1.4585167316728498
3.710776578174954
-1.0764680116239775
2.1657745398380612
0.23517781035834773
2.3907641839104468
4.595910481624431
0.09789345636280444
1.2500346926432346
2.23754542857176
-4.8348780155306965
-2.558488838076424
1.8185356911887363
-3.1896332350284573
0.9400070300887089
4.973857297323523
0.11174716005005614
-0.6234398521803914
-4.493863931324976
-4.408072583475331
4.223368563369952
3.84067442355539
2.722252465905825
1.5368715296270494
-3.662981522188895
-1.8978926291855869
-1.1551305759654618
3.1490811320261045
-2.401669739864567
4.534118867407068
-1.6977878628628726
-4.864835484433236
2.8682360457540987
3.3638525469901133
-3.635664888002191
3.514103038497801
-4.4296714598461495
4.443625314540977
3.4807523518528303
-4.886267184188849
-0.9869031263024102
2.394988932622172
4.9591108155809
1.325102618157553
-0.4596198495527757
2.049130441944783
-0.5856077632630221
-4.033016816063643
4.2754005073917085
1.6377201034495084
1.5986680187885725
2.2541853808092167
1.6245211672731061
-4.450070450203204
2.5200852642444467
-1.1571473166119608
4.3769959859111776
-1.6206780420085662
-1.600747904283911
-4.715514286505023
-4.809714417643899
-4.249612625018472
-1.7935094361041126
-0.44110776716001787
0.9196357634418924
2.7259003917213676
-1.8058257698930436
4.4132233265122895
3.379932278527539
4.724900320234843
0.5323599262112264
3.1771500912329422
-1.1466957587925375
-1.8840161865241312
-1.5328876611009665
-1.0302062663761555
2.9776405673975397
-4.758772276553182
-2.77179171697282
-3.0629929042447435
2.9615909705445267
2.686173770880381
-0.22800312917621035
3.350200530177915
-3.5525291404514956
-3.5488895377675647
-4.3719461562234185
3.2715462238377135
2.8105792508229506
-4.996153656574961
-3.4667773517335085
3.9897118136035346
-1.1158062026681836
1.606192889719007
2.4327259576132265
2.3374081600445873
-1.5915168683096637
-3.559343107918924
2.0315629076558475
4.9061944946422695
-3.8494030453764996
4.670155073878121
-3.937691252594402
3.666401370461097
-4.9229405888871565
3.704225022998598
-4.301714123747117
2.7730745163060533
-0.9630425926800807
2.403550858174924
-0.36550770688300727
-0.3880481787401351
4.161103580711313
-1.08794489516562
-3.8071005080409015
0.3042249951535947
-2.038146159163532
-3.4602367300259806
-3.6133098659132346
1.3590911950808788
-0.35772764123519796
1.98114273215303
-3.7363834924232253
-1.5423296567396028
-4.064023165360861
4.536842611815317
-2.147864138178842
-3.901350664658252
-1.3174710720512604
3.1160622848243325
1.484890960411268
-3.57543362932242
3.5771895948070203
2.1756058393360256
3.7469051278800443
2.479436205644401
4.447653040658087
4.214460607701758
-3.0507112228138
4.356739321163484
-4.531305000120646
2.847501613163246
1.731858326446857
-2.061962449696307
2.6386914657646443
-1.6635632427753313
1.6718047526952997
-0.3058194131730989
4.722651692209949
2.4138887749114355
-1.0169401946789627
1.7472311360827577
-0.21014244606111365
2.177384513048648
-0.640146539252731
-2.4986849216014284
4.5218867192172425
-2.6933387235958706
1.1138120449575037
-4.284387785405429
1.363811802084606
-3.5074345707432633
0.14023939762797166
-3.977412552883165
-0.6512517854017066
-4.382886834365317
-4.034340085807424
-4.45268638906433
-1.3972139861482056
-4.963861011095593
-0.89332002538311
-0.36069242169497073
-4.0353277968302645
1.8821241101974504
3.24037451375918
2.6682500632797552
3.406506474389399
1.3872632107045524
3.7396684863399976
-3.6979250896309726
3.75080998104934
1.4679558786888816
-3.1477656449780556
0.20384719092673187
-0.7904548819252897
-0.1845880421397572
1.6546590517436162
1.6023134008649018
0.42924028960585225
-1.384989413536469
3.234076715970046
-2.398567981576597
-2.746105759064382
4.7758118321018355
0.7577017067046299
4.869200168253142
3.5294249423598103
0.3692554496817815
-2.528254604659732
2.3316684855685654
0.9970368751571943
4.489914748659864
3.5313249660617068
0.2652690679830165
0.8720804771487769
-1.336993718249837
-3.8084106088145453
1.7899338935197093
0.45573761750173425
-1.8604961963307565
2.8698586844771414
0.3443647258163276
-0.017397156656614676
-0.5103476686916792
-0.4628571918846891
0.3272714400366219
-2.9911954427624776
4.1150714366518155
-3.0297450769762833
-1.658895542396721
-0.0942629476615684
-4.126411085770841
-3.577794428559531
-1.7270690467630834
1.4986788491792087
0.38905191975326847
1.9050435353608899
2.3785467663348845
-3.346870409728444
-2.8368796371973515
2.271494143956277
-4.497637002228246
4.86776124985793
4.083382801315999
1.8824618574853949
4.835266770003958
-1.0747102225663632
0.16237199464440444
-1.5149685832823199
-2.0927943787774828
1.9507339128182455
1.340380281653239
3.948703820874094
-2.0029077745811508
-1.9113504016497163
-1.2957866841102095
-2.779892287418865
-4.410526091153183
-1.5855976103355318
-1.9504166603556428
-0.7362059570983988
3.042766284208163
2.3342967920678905
1.6758118222532534
2.504249765616847
3.2127481200949966
-0.9652117950024532
2.552422661443094
-0.6290858872774239
4.466072871491633
-3.3955061556885924
3.477065563676657
-4.235778175246009
-2.6389415742221933
3.897711926079623
-3.1660426450145196
1.3269314461199953
-1.7385292702430712
4.765279686044865
-1.37311324892078
-2.578620322954428
-3.314142684987539
3.6708618265922706
-3.887190913441679
-4.653342452619778
4.993725052856943
3.753808615956096
-1.2885706699467745
1.8005779361503862
-0.7159658293075752
-0.7252759673452154
2.233465379339618
3.734341949218919
0.03880004051433428
-0.06197340919547223
-2.6367081032133157
4.901435630113513
-1.7721741938059008
4.621687011935752
-3.544450964776634
-1.8570276218950834
3.550950560364374
-1.6168772083821392
3.405444553115089
-0.44589397272620346
-2.4154913977453285
3.0662289133100202
4.58990225289811
1.1973710629997578
4.658123678631679
0.17621259848678505
2.876206099151821
-1.2101052597617459
2.8202037432813922
4.958292542394441
-4.236722379471221
2.7458163000579647
3.251852232578635
3.2144255877445556
4.642642123076065
0.10299396097053215
0.76821810263037
-3.247922067054633
1.2814822586632744
-3.4835068769802193
-2.6409218055875696
-2.865182589411833
-0.6093503966143174
1.5412366545384026
-4.263746190476415
3.491975676365932
4.269908500950979
3.412601473622452
-0.41282413758156
1.3373851447251148
-2.363592842504767
4.633421464356092
2.156212402168557
1.0392318157805294
2.3564508915105185
1.3569356900171705
-2.7588064149278013
1.3961900709625823
0.6175558807128043
-0.9520703151002765
-1.7010560909255776
-1.6861254327652784
1.6217925854923756
1.7581218686641522
-3.9378599057329753
-0.14167254231124193
1.3951297521440988
0.40877997072418104
-2.2284169120894792
-2.241211954879968
-3.071716867919385
-0.16305671590504467
-2.439519313471046
-2.969405628814968
1.0536866012415116
1.5336467143341137
1.0142103156980422
0.6093905540528022
4.734957648185166
-0.8685171513254462
1.8014605218338549
-2.729052204017308
-2.182214052968626
1.196133752462357
-3.4405172604731558
2.9082313078339563
0.6294633553469211
2.371851938509339
4.2366761470224255
-2.3784677317991108
1.2458541808869228
-1.9211449031624763
4.246171857352758
2.9845627849089915
4.973626429177482
1.7895384335170519
-2.0177913914577728
-1.5114523924796943
-4.066420576131402
-1.6546589608105187
2.055220157310278
0.9918253159710062
-3.7197032649025887
-4.5264645892297795
3.315737017537833
-1.787314182347517
-1.0962237778293393
1.5495027121887182
4.181110499384902
-4.400409197722359
1.9819082707218252
2.99671398523191
3.659042122640983
1.8723226441859486
-0.5412577320664438
-4.732526539192847
2.280967732337462
-4.585538916731908
-4.293830513509826
-2.7653918334290886
-1.2454637414004068
-2.8801351593828715
0.30190563266882364
-2.0367586532493407
-0.09215346837928529
1.6009618972572728
2.970615508455494
2.1044173277629783
-3.2193982419649316
-1.9033789188441008
2.897374975918222
2.6492212291744
-1.5117203079383867
-0.115949972098365
3.016704225298179
-4.5810482998426085
1.6653381689987512
2.12629302993144
-1.8157655471455394
-1.8375405758329952
0.6752214447408065
3.7185931276824373
3.321669474018778
-2.946847140879405
3.763935526601836
-4.5550561753933145
4.345067803332199
-3.874623433452211
2.787401156499012
-2.4237002333950066
0.2069749097684479
-0.17842628805569127
-4.4716333462883515
1.3766506273681811
-2.933950235349443
-3.583509052169447
-0.715868201350446
0.45903904724964306
-2.8864716908475585
2.4477997021761126
-0.8592939820259691
0.6126127992472599
-1.762854450770849
-1.3570645799075565
4.207523194731531
-0.6874575842123773
0.4731347776555044
-2.6319786128294362
-3.9169612809514676
-1.028384378321153
1.4429776764358326
3.4180464005627105
-0.6088156320818676
-1.771924854726814
2.4776915549465706
3.3706167993325984
-1.6137960076091673
4.079298707512946
0.49433112367800724
-0.03173709548757042
-4.0391073711428325
4.044313892891067
-3.4680684254168193
2.367852277364088
0.597038657650776
-1.7776424765624066
-3.824153785440262
0.5598381366341894
-1.5667431952994635
3.796839763916436
-1.6832011174635042
0.6556818340219035
-2.4373658830878533
3.4135664392024516
-0.4616003555330215
3.7365586587483044
2.8958226625085803
-3.8681345324854997
-3.96981911385623
-1.0008992649781492
-0.16286369556032732
-1.2699035310484943
2.466115950802566
-0.5449743473298359
2.075158306618306
2.923187520191897
-0.02605875037534844
1.6885238630267674
-2.7341347392332516
1.2608204952945812
4.940709124824057
-2.769179596614201
-1.7485993691823132
4.194227286963292
-3.1370563041104105
-0.9901528930725414
4.760713493065406
3.638571246469473
-4.847354407834837
2.724757762460297
-0.3821766073181099
3.4923329149383573
1.8713326592148345
0.614617906158327
1.2751761621986981
-0.6403933406333797
2.83316126374051
-4.716418679062292
-4.3437424413359285
0.6661788368885224
1.2635092960509864
3.988962886000273
2.384749136320546
-2.1147075081684488
0.435512473031733
-0.1220110103507519
2.6950990590458073
-2.1682941790562262
2.236616431047649
1.5795645771864404
-0.16859488049302307
2.74814682167872
-2.5978011178207403
0.8621105426684643
-1.4545685394173056
-2.1668083623799794
1.8748426858959206
3.93782484394262
-0.29850705167089586
-1.8073981376643475
0.051489277243730314
-4.511809347029119
3.8804526207550563
0.2666332090740511
3.64494935049901
-0.37205668503574785
-0.64363531958975
1.148137776183603
-2.3092929004178475
-0.08175032096943813
1.7947253147785833
0.33119607525535955
4.427147546014124
3.9414039850910285
-2.277437838572718
1.1713644955231537
1.0444559022915474
1.073152837824165
2.2923863975873235
-1.2534030163428058
4.786386289245014
-0.6121087528950611
1.5597845554397791
-4.5355011879193885
-1.144991785979049
2.4328978753662316
-3.9217954705848945
-0.49106425160270284
-3.730526796091229
-3.662523685656743
-2.0206217209409183
0.7518524289534962
2.579782330961259
3.7656954088676926
-0.9347537055331561
0.25602633193600965
-4.738098690776705
-2.909976129905872
1.1793710713452397
-3.358741932926017
1.6518001871458443
-1.4109459301390248
-1.237963723438714
2.046851638954193
2.1745617501651617
-4.260790151836577
4.631477848522035
4.25984905586318
-1.6303225880036534
0.3341484638757155
-1.9783639789790977
-4.649721291410282
-4.553106067654351
3.0280289193758563
-4.014576529270685
-1.3467110264860627
-4.730931573387562
-3.770212080728601
-1.4326865425670832
-4.682980959074822
1.132202491875348
4.108975569183258
-1.920639266258065
4.229845818352407
-3.500868488226047
-2.107079469634472
-3.84933191799528
-2.274357006439738
-3.6265839408414093
0.08995903970250385
-2.7619957644224105
4.512014038254078
-1.7046527038157255
2.409998084548346
3.727087458436907
-2.0739550687158737
2.604050352827941
2.8420538803353903
4.531725097880386
-2.2986685026990337
4.110493979482232
3.107021421540786
3.006219354772142
4.835925668914964
3.6832031068755295
2.38671190217325
0.29860313790141824
1.7890686229446011
-1.3066354914489144
0.2820933018279437
-2.8709169782812527
0.2164913638094701
-4.398566928135898
0.137813658360189
-0.2933742026099715
-0.9118055641494651
-4.038805759010202
3.0506143091284184
3.4526402936256417
-0.44495115293485465
-4.174148199603778
-1.8240874564124923
-1.5095330807674125
-2.421175271677031
1.9214055137288444
1.2081324965515226
-0.4203667504173705
-3.328682756840844
-0.756427675818081
-0.9220622595830879
1.662764892165372
-3.5927811168435033
-0.7135094118392029
4.845396687863371
2.0984975182873207
2.0479678134863004
0.5260732223107887
2.414042227805405
2.053291436216731
4.076170174370679
1.318833051698654
-3.818147395181095
-0.08514937030445946
-3.0257300460733925
-2.531866464214402
-2.01201665583451
3.464979263501794
-3.197413599308642
3.8614093002812773
-2.415587061392732
-3.527903537492069
1.6408466670734985
2.599228583888097
3.064007880099881
-1.5978673501768395
-1.7074634831601876
-2.1311081399942355
-4.74434381142538
1.4386111409916964
-3.833893921700071
3.4305216319732086
0.5023033406921726
0.17668933295219347
3.2336329695063153
2.728740166128749
2.20458054000051
-0.8062753042247266
0.924944317650346
-0.283259111822467
-1.329624807691363
-4.426349704056155
-4.045170665166723
1.1962106113542594
-1.6800333264128167
-3.644363443539066
-4.368376953025541
4.025289661353867
2.3114385074668977
3.020096805597671
-4.945255054881273
3.4145722481984784
-3.115903097673276
0.2551551270243779
-3.249691589166633
-4.997307817798938
1.5424466476979424
2.488650201715398
1.6594808397051999
-1.196730269508366
1.7557553777248094
-0.7956206212112917
1.4532494647859036
3.4224996240444696
2.8199285677425
1.5621285397576674
-1.9400905537634925
-4.946943398932211
-1.5758111733393032
2.2302460500358743
-2.3982112702846283
2.686566272565715
-2.879554433968905
1.346423335221541
4.432470584257121
3.3935011517098452
-4.711613056515793
-4.760187973046034
3.9666168760844265
4.3602683704245315
4.019142976093157
-0.7715633718084112
-3.680139657010778
-0.49040516219722186
-4.479134557598662
-2.5957595544195424
0.14013598332427613
-2.1417345935132692
0.08294897496496478
3.723820594580916
-0.619209881098369
-4.540338711736847
2.1972845558552763
-0.100070508254813
-0.3464014659009589
3.5739500395547594
3.609549856001653
3.979970494416639
-4.528390970368207
-0.3448531008533422
-4.304385339195978
2.766974190884639
-2.697735793541697
3.2677451181816455
1.6222153261683427
-3.528077331046411
-2.0408851054393717
-1.253613581232261
-2.201405956136593
-0.7526268796435769
0.2513202801473646
1.79838773572778
-3.4953459154627744
4.893002846653699
-0.11709094247115637
2.8523431799596652
0.28097765056832724
4.359498503420221
2.5312308501063576
-4.630292913904773
4.053022340433351
3.028289355013584
-3.8414703180745113
-3.530001626631276
-1.0270094453890866
-1.8282078943213875
0.35727544511744824
2.675769129784438
0.5920310242251015
-1.7855905904404947
-4.938856349046108
-4.229153207232843
-1.2104267059745344
-4.056866492601074
-4.349337571351979
1.379432821353463
3.169985749954092
1.7451454807404554
3.572983338970081
1.3194500274939838
4.859423221211594
0.9279843561654255
-2.8186596595873414
2.4007732050446995
-3.0587422604843226
4.17399764366375
0.20922677291932246
4.372935746861469
-1.3096029450190572
-4.346887562506298
-1.8464381851787648
1.4297207362021966
-3.545701974010409
0.34680587986384204
1.7463893954101213
-4.641109971765527
-3.224398195467982
-0.7668154033727834
2.0523925463031256
-3.5373214061862357
0.5730757575029619
-2.6468006364532073
2.512606526307928
3.5720765242941805
0.9964300153819323
-1.8976030956487175
-4.594555209207099
-0.3464547704258294
4.126040053176283
1.4242761164820505
-3.4430149031753476
0.3891111353418175
1.7668727301147404
-4.953635321682295
-1.6311363943228163
4.793472937417297
3.5972400574913763
4.07434715633174
-0.8354633613534066
1.9708329424297215
-4.219832367994442
-4.9821074979130255
-2.3578638748123284
2.9199080441426917
-2.7294482656356966
4.08164190535363
-1.3662156210696166
2.080116182813084
0.19177341761565536
4.514664307964434
4.313278199045607
-1.1469467819095538
4.738934074025112
2.404182960180319
-4.930823435583389
2.281708893708733
-0.37425745412368094
2.173328867748225
-3.325115081128116
-1.045955997411828
-0.9371107652596891
4.965267346173906
-1.1856064178616021
4.167188099630705
1.2990020587645255
0.7847621584575579
-4.561247947687565
-2.7666256699118144
0.25195997060466446
-1.9881819390203939
-0.12283436481725296
4.18947165285166
4.968697565212375
1.7875681455658423
-2.735642009296264
-0.4706916350178245
-1.3836422239846016
-1.030718375979438
2.837102105902699
2.1353332077875855
2.7962559679961387
3.3650894784239895
4.6786571378780835
3.5327187111105367
-4.732230530447846
-0.4521788298972975
-3.027094057851584
4.127518288019511
0.4442129339964911
2.5316654905135803
-4.070219058488358
-3.7559208254067866
-4.680419512866924
3.0776546329052348
2.160787214619056
-0.5288995355075263
-1.094380134848969
0.9801221904481583
0.9149060428856517
2.7057413016728784
-1.6402765577863776
-2.9360310208741067
-1.316734356516739
-2.2769678470835997
1.5556395734283432
-1.6406643881383354
3.528212208928988
3.1779468744299315
-3.83988875370623
-4.777842694991145
-4.3855739989368425
-0.2347791525800602
-1.7866850021903247
4.9721478053682535
-1.3728465835650372
0.48694715802954125
-0.271187249414357
1.6284682499240724
2.7795236209518084
-3.797494793267836
1.7877891233395768
-4.416241269578967
4.484994666894121
4.142555228148723
-4.270953558902969
-1.7633539919771444
-2.701516394914034
-1.2573321913585467
1.6487035167436312
-4.487858210417038
0.2535446506944625
-2.508739057892128
-0.0637830298259896
3.5317611859278237
0.8670574762994843
-1.2219175656571557
4.872383433965023
3.956612227734075
-2.2376829450587357
-2.435718717141284
2.4286145238230015
-3.000702164727278
-2.873196089226605
3.465062872474066
0.24647714136674637
-1.1329748038144816
-1.9541355997817202
-0.39088932535046084
4.741211994056016
-4.822018954242675
-3.9966299838300747
-4.216306665036899
-1.046320978911476
2.8357859976327813
0.9054059607177267
-3.6662411073279566
3.4012793493136755
-3.2259422547377206
0.5095001914745412
4.380741329019411
-3.3136077885462942
-3.0297703591316405
-1.0455808422300383
-1.8046824210048262
0.03734150829670213
-1.439486022330616
-3.4198905964485435
-1.7734117684920125
1.459157263955274
2.3558338167216704
-3.625893565848232
2.9302593888944557
-2.170048934212052
-4.264527131713717
-3.3037551282292488
-1.8158406207943392
1.3556282038123681
-0.6901819421002484
-3.1897639853012705
-1.8312991332617812
3.872444176200405
1.2109613421447794
3.39354588429447
-4.592161234626192
-2.3472954261372205
0.9528118632847091
-2.4261096786425784
-3.7739570589366
0.2478717082260209
0.34784593508925266
-0.21433435747285046
4.6031136924281775
3.166665454688296
-2.190533582722143
4.415494723804116
-2.222145389255642
-0.5664662142176624
-3.9156866639766585
4.0529719234532084
-1.7750892068193291
-2.1882103210956574
-4.208014944136609
1.2226167119786542
-0.8340812566670754
0.3502501609009503
2.030769212980143
0.38926854599955085
-4.132263327610534
-4.819090311323746
-2.418838650641918
-1.8401816087357012
-4.736586757098927
3.3387245780585655
-4.464533345853495
-3.5992700083022844
-1.1730912091895664
-3.3433479991978277
4.566374804346406
1.5127200082433676
-2.7351400315728345
2.8039526721928363
2.7666966199023513
-4.8347354955027235
4.094320854324225
-0.04672286564055472
0.40716979959618094
-2.8863979036855847
3.824049184900584
2.0355740835693004
1.7445386083288126
4.627933086123431
3.3933562134863564
-3.646245568961193
-4.770082078822516
-3.4976446674804142
4.330041530365204
3.099768724119489
2.651324308651147
-1.5629083795409668
0.21898860037420054
-1.866219125169848
2.0189514671573816
2.000455412932949
-1.9893630071976176
-3.7671132998782184
-2.242168991869197
-0.012950715410637414
-3.7812949092814407
-4.58597551770923
-4.520754455448195
-0.13129813550606606
4.213342899607573
2.8423431670130483
-3.087437046939987
2.0677412660624235
2.5171716722011395
4.349946072576621
3.475031427254393
1.4786483674688249
1.6536636857898799
-4.0206125218563695
1.879908450058549
3.5228465658264057
-2.9697898042166457
2.10544095858837
-3.1740844767880483
-4.477066440266809
4.21005397284741
-2.5940764537164753
2.9284497506480847
2.7222212760759215
1.0925452476315956
3.915065403821904
-2.3581349582630295
-2.2917821765858393
-0.6771362899139719
-0.40173211552594523
1.5206525562858229
1.9868150463151188
-0.7655126532286332
3.3870824626084097
2.480277078338073
0.2615033271284908
1.6281049759570294
2.3662272041355124
2.7331519726139666
4.928729839350336
-0.5318527003821893
-1.0460232431096306
-0.011887486979693662
-1.7677752460944154
-0.07224199014443133
-4.1088957783081
-0.6729688436326473
0.4797411963315037
1.843696374835356
-1.7972008756318134
4.476423056943469
4.371409480294314
2.171077774164085
-3.651367116995953
2.9288794612106637
-0.22424026607188097
3.539055105411448
-4.225827560230931
0.26967432126131197
-2.2790476649987546
0.24980501310809533
-2.9898156042329047
-4.546330050265109
2.327191316662084
0.8924102016156175
-0.5528193461039299
-4.742870883000146
-4.762076116037459
-1.7267075754276107
-0.19626783236895484
0.7490322526929312
-2.4524799194031663
-1.490086446287393
0.3725684796754152
-0.3225943051243405
-2.9314934698993698
4.005765405950212
4.944487784134605
0.6265559907363638
-3.027864833955208
1.8653618093298405
1.106669336517748
-1.5641179174625308
-1.7728416076258249
-4.21077582872862
-3.9609632745117973
3.9375854950288023
4.9453461363216675
4.374270678332429
-1.0168324275973206
-2.79502266574248
3.4714388810719488
4.972283522317905
4.017962290617545
-0.2194374702386268
0.556153864340323
1.247873391121792
1.5022580094027678
2.267185777274541
3.080488143788756
-2.5055865150607537
2.0474810871347104
-1.8032305873173184
0.27159715401472795
1.853796222028448
1.6074990904862503
-4.6983068270579045
-4.484655940014366
-4.800169922295483
3.009333360336127
-1.010605761002127
-0.8496362901427776
-0.4197797152581675
-2.0782180647545347
-2.933252114656012
2.3589941042399456
1.6358534582359798
-1.1023742220181534
-0.1985915266770295
-3.1533332277591275
1.2234410525647013
-0.7055897766045502
-0.553744930001665
1.1039371129619955
3.3985279483310613
2.2849291621140564
3.8480683879816837
-3.825353674810504
-0.6145063531128301
3.172449288336095
1.20952784289166
0.717071859871452
-0.6887860090433486
1.0790372168274933
-3.3267088165011396
0.23608576186641272
0.2113367763155205
-4.6365087002220235
-4.622272485704841
-1.1065909414891903
3.7552356519993477
3.3506841317805343
-0.6146907064200215
2.2528119778812004
-4.76450382340337
4.107089201354805
-0.6185887233111584
-1.0580864486632824
-0.0032130949270179343
-1.5443806800344073
-1.0134491929530376
1.2297631768604838
2.7979192999214133
2.649640489419401
0.6657950131402268
3.1824159156541825
4.416202555930525
2.0687131847055262
2.1499841676487446
-3.090671422058896
-2.094900377544225
2.1244462585219956
-2.273282647233401
-2.5522156576806045
-2.7068813422004903
3.055987647960718
-1.5062573370029542
-0.3494720717855966
-4.995598363550139
-1.407549024874978
-4.727757605883209
4.979744522399759
-4.106929300695037
-1.8659110555677758
-4.330911938048274
-3.351225735858605
-2.2033746305844093
3.6037478616434875
-3.081452673575582
-4.5881874024337845
-0.7457798431130609
-2.650473920214922
0.931348507157769
-2.714810448100835
-2.549043698321918
3.7572143981293564
4.7611857811705836
-4.428966448936817
-2.3518147292902967
0.13668055291628534
3.979436547041816
-1.7641918587526204
-1.7854959955797591
-4.466085581056001
-0.8405975149777545
0.23357179183929322
-1.0683491484455332
-4.919252463825037
-1.7076826182816562
0.33564312277730934
1.0768708559636755
2.8205701283538085
0.8339388881288734
-3.0427537939990676
0.39141826304640137
-1.7828556816016716
-3.353747466837873
3.4252120633035297
-4.809916412019266
4.420220541647202
1.8297137194449018
3.2041848061712486
3.390394586513846
-4.474889181194122
-4.035407454233294
-2.487646841422122
3.244003260343165
0.7601960675332862
0.14441729113765334
-1.0383819160633587
-0.8635358853849127
-3.2825322991061756
-3.8344346141560393
1.629851991582143
-0.19964232341243004
-2.4498805336628315
-0.4678878584734525
4.6334115943151115
1.812744749832361
-1.274625295889308
-0.5953073325728617
1.7676920831366418
-1.6605984740191273
4.759390988091932
-0.9351377232127289
-4.887811729808363
0.7429079129437923
-4.127649214505132
-4.648832401095148
-0.9509732440434355
3.648781512864719
4.865217954700679
-0.7126561699449656
-3.9913405943109503
1.7636322877840893
2.14438575735008
-1.5639623659353186
1.1652281083748797
4.491648313208316
4.486777509536257
2.342542428212222
2.570200015474904
3.374250531078541
-3.5357208405842733
0.6895039644909842
-0.07810891379640594
-1.4571540878154652
4.939944127389516
4.164970048797764
-2.8476059222018235
4.511969223028146
3.3284876293521464
-2.674814842118206
2.971406514727316
-4.480858575331795
-2.1476590647820784
1.9822490158786357
2.4279649929411793
3.7394038424197724
-3.169697905105735
3.8654769155492836
-0.6755024886380738
-1.9856114580648896
4.295947718729911
-4.864362771628491
-4.411624444978711
3.2300966653183742
-1.7201564465355301
-2.0077563859440217
0.5158615667521405
-1.3213262578120686
-3.791812586610994
-1.738243609886795
4.014044667456236
3.7715731710758575
0.6029819615397303
2.5788257794170004
0.9923347909351632
-1.39064157787806
-4.425037252441831
3.9275728106120926
-1.432223973157547
-4.778855474449868
0.35060638144329026
0.11331187401295129
1.3413601614249906
1.2248485749373526
-3.1911527148981502
1.7695794676298018
-1.3336964186323055
3.5578997782264423
-0.847421380382726
0.052603722928806995
-1.8025248518351287
2.836959888190914
1.994978331724698
-1.6221780493507634
4.69580397821669
-1.040607686514221
4.765723139013321
3.956471963445642
-1.8694546984925156
1.0107610319635025
-3.9406213312291527
1.6149853511114562
-1.2134026822442037
-3.605139004088417
-3.9256497348411346
-0.2133841481946792
-4.980408272464606
-3.3387289823614195
-0.6877575339947324
3.6489051871702767
1.117320312389115
1.737567010091655
1.5089200626241954
2.974587990184374
0.7591166692968541
0.767336261705605
-1.7239095059592104
0.12105595531187863
1.2807746072365802
2.146638525252772
-0.6346491066599658
-1.7118862657007252
1.3041473872111364
-4.515498230456773
-1.292299932043103
2.169414379958285
0.7404149113755683
-3.4481196113498216
-2.188120053692526
3.3699650563855883
-0.7937088984470133
-0.19681579329189525
-2.975910747133792
-0.6511386428597223
3.876787730608978
1.1443699140587498
-3.764181924966703
2.638109447736202
-3.5428527712179205
-1.86110460567357
-3.4293470903770795
0.39252460249811083
4.660525477229795
-4.269356469769417
0.6390481277748217
-4.2705107126551765
-0.06085630779413087
-0.9799226131553516
-4.923801032211531
0.06848729617673222
4.636162605255134
1.6042180343132815
4.817879455877623
-0.695457795456667
4.065924386222408
-2.1894833736216723
-3.3297938671070915
1.8624763605750019
4.065351594893036
-4.555990773790485
-4.977022568024559
4.4889453303449365
4.306147154838353
3.744905413611548
-1.7834964105914688
-0.07356903292731687
0.3954143112388415
-0.768392642846214
-0.899245804399813
1.0520863265130211
2.446013562146934
-2.894064590740718
3.7906936090002326
3.35790607579146
2.999927711621286
0.22542889150368595
-3.039558288085863
0.07969604128092378
3.788560979712365
-4.006284707323344
1.7824963653449064
3.011194119694121
-1.4147281927828006
-1.0715230015665824
1.7143032968563041
4.748282081010837
-3.1046765895246886
2.403383174554171
-1.4957807249031996
-3.594637442298146
-3.212026252922123
3.5454893722114917
-2.6856706576616753
-0.7794908734540948
-0.29511881072399504
4.062979224604861
-3.644528727163341
3.8776225331600767
0.6531001529439573
1.8599949901490103
-3.3028812406533414
-0.44173048877574494
-0.4332457052133334
-1.4400901314530268
3.8591511510048786
1.350522599317344
-1.5669228490629061
0.040899703618740624
4.817867897777958
-0.12930154201427513
0.281608928103668
3.8828816362284044
-4.002540244123109
3.0352266264877343
-0.6976196658098788
2.6823171581945253
2.185713843695371
4.326939253691295
0.7550450096512682
-4.352828646662363
-2.482550097959879
3.2712288331464716
-4.164804845576783
3.976791199635583
1.228921678130158
0.5041854797697853
2.6246241958977476
0.47223848985335604
4.696262554264525
3.3296798767349642
4.0846726178447135
-2.964538984084969
-0.05194368695141627
-4.02043189848193
-3.9674226708011497
4.812100562314276
1.769295765951684
1.5463365413840222
-1.0478205181622
-1.4995781018265832
-4.880198257551312
0.6873502608803284
1.598522851151765
0.26134571051233824
-0.1777846757023358
4.783617942748284
-4.29223015628784
2.4895059109848887
2.839684612940517
-4.737333498398289
1.519171844020363
3.9363190480056574
1.1153573685531715
0.4106189551352699
-3.104585547954468
-0.9419122100215365
2.496072081987416
-4.744876692408861
4.115003563722441
4.359766953182746
-4.818031471877003
-2.7938462816312146
0.5350687653956765
-3.8618340840199528
-3.10566081535376
-4.636330564139442
-1.432637221525026
3.315059926201739
-3.7178513071498456
2.411461011332409
4.153325924344438
1.9131982370925806
-2.8496860956471206
3.448297552521897
2.0116927694299322
4.452923431342201
-0.6802355403418483
-0.5001668759902245
4.760584513970578
-4.33084095214163
-2.638244770726078
-3.90190138880579
-1.6801573265278358
-1.2536569837587552
-3.1482654010451494
1.7568889223215445
3.785971450393763
-1.250966500398004
-2.137541704468781
2.8411401800995133
-4.510871974625158
-3.973558764813745
2.9332921610651965
0.5764087297389633
4.196907448202779
-2.147427159434616
3.891677529742031
-0.1416839137637682
3.569104560541078
0.06910556758943187
1.820702218163306
-1.4987848696989001
0.30965063960472694
-0.9972850673159792
3.0321523050082355
-3.1736216666503934
-0.2794217642419152
2.971309595065912
0.4373944605756357
-2.3177177056679454
2.1007157877487925
1.6791639416061823
-2.8854882836354845
1.973680308569131
-1.6813315208633117
1.5240248498938582
-2.8241010561779345
-4.330592094417657
-2.3124191405023486
-0.5807557246348694
1.3334919701487173
-1.0778098807140823
4.663301667930307
-1.5269279950776191
-4.307631892676204
-2.2505383837021187
0.5490246907267569
3.560549410076815
3.29076771455075
1.9332684569021987
-1.171929448224721
4.089412193816033
0.12734230984219774
4.998144918874271
-1.3877010497663864
0.8823942871660506
-1.7735134311245004
4.304509024395497
-0.24920723989025184
0.9343339810752349
0.3543299795099033
-1.0370923031305876
0.11124796041867668
0.2577627393508042
4.750047958981471
1.8471657963546493
-0.8140174059540017
1.6235234076562968
-1.1868032187431332
-0.963755170374359
3.944307614091791
-3.621063028574918
3.6271824980221936
-3.604893533960624
4.276777619205491
-0.6254857300641969
2.760067159854805
-0.01284252666376684
-4.21254620343737
-1.438739535837409
3.819126398825384
-4.663111007297493
3.7569138727924685
0.8442994953925185
-1.4616518160599368
-3.1075450538230056
0.8298703427720753
0.0400003803455915
-0.30822523423290615
2.4920127550471296
3.2290515884552384
-0.7962456600593821
1.0173834643417727
-0.3677884620491678
-2.164575548665033
0.7888958604877505
0.8223085870206637
-2.5285759167887623
-4.6522374161669635
-1.9629300326023271
2.374382352580392
2.4811117862727547
-3.969281832834705
3.5904952164201394
-3.311619157003224
0.3485167518858221
1.5437112795663923
0.8438431845784935
3.9620383038363283
1.4211306090284719
1.6872075201775303
1.6357583099137702
1.0440137385050967
-1.0765670295164975
4.808839040706685
4.890345053041248
-4.550640916587893
0.839811220299211
-3.269736124132735
-0.6401595913599136
3.485860240442811
-2.60078975738263
4.219452978201804
-3.039240690520969
-1.035697949531583
-2.247322545910456
0.217089398924041
4.627864059667559
-0.8763384178828213
3.476965078030444
-2.1238501102856313
-2.8257974374464103
-4.918445007746044
-1.3544577540933544
-0.4872456206122848
-1.8130273740476541
-4.796975485748672
4.8611687973686735
-4.389876146148151
-2.315889913960243
0.5404151185788901
0.7430552002724191
-1.1229268293756842
4.353294175311797
3.3912141434091847
2.2225786314037164
4.356675510692517
3.382509935595923
-3.025005055057272
-3.359764888202821
-2.114573685803447
-2.6653241595930153
2.426933999898756
1.9447658584199479
-4.785169611495085
4.373499062818315
-2.0150514443584955
-1.766684340122744
0.641037580912557
-2.2319333843683853
3.221577030667744
-1.938229755978358
-2.8445487685151107
-4.539685113844504
2.0623451016909344
-3.7666455086374917
-3.4098339831383164
-1.101141199839227
1.3215491781095876
2.220571626962008
1.42335650725067
-2.1892173880057344
4.481450612789615
-4.321690369814544
4.393419455464379
0.6919878292563588
-1.9545490057334813
0.19464641801061422
1.6287380590711145
-4.222150694680961
3.0877758806718294
-2.5155500983450874
3.5804302023291363
0.7437289924254955
4.070659371982808
-4.500132005191778
-1.814827649674351
1.8914723534752307
-4.243362280474009
3.082067275756998
-0.7794344487090044
4.102395752509976
3.3157628500424625
-2.8904303343575344
-1.4838791916393532
-4.7164949021985345
1.5140604578053827
-1.5807389641287815
-1.3878756936195091
2.909130281077344
-4.53665104666443
3.4120555333328078
-4.080833826077002
0.3011538929216737
4.536099616209746
-0.1660424701837968
-2.440349904405256
3.2643829445357824
-1.9127787646081074
1.5550041486445787
2.2099868899691186
4.770493763968142
1.7626924605530032
-4.942091918986046
-1.0067446139487046
-2.232934144995192
-4.072361650844783
2.482487456615612
-3.286062394485306
2.6677637886996743
-4.820576870452951
-0.445538521823174
4.035891838605451
0.22729833964441948
-1.240576910816765
0.11846623860007277
-4.123200699136001
4.826198564789003
3.300896260546004
0.996752750210101
4.482571730363752
1.7707752536597692
-3.7293598366526126
-1.4045050792170723
4.123138446967712
-4.425543098501161
-3.150189357972378
2.0152811980971013
-0.4784688098156442
-2.2620628259383615
-0.9192384238520273
-3.3604819491094453
-3.762305031617812
-4.731246989205364
-2.7381487247302916
-3.4040329907640454
-3.280613807674233
1.078513679256524
-2.827888696854929
3.5893938767549844
-0.4611407375361418
-2.2032987387469394
-2.1521187058585936
3.776206422900275
-1.862061412057554
2.095067617052022
4.255659066407972
0.5262818805470557
0.7023816639122451
-2.3342169720980777
-4.4193701892129145
-2.695563083890794
4.37958107083125
1.6148587445707943
3.3627425206051225
-4.975532338773663
2.520193503408956
-4.18876786403395
4.152110297243588
-1.548468898787505
0.3210487792775272
-0.5676651033138969
-3.1163065516893953
-1.9189020356553312
1.318042895130601
-0.8130489874015421
-4.115907791292445
-2.799599795973174
3.333975346816393
1.499435914150137
-4.646604735084983
4.631694118154245
4.257259437573019
-0.022965198937804132
1.0030787418734413
-2.3034924562044665
4.891315923882152
-4.8522784525209115
2.6012363068268973
1.3280257095432182
-0.0792915800166849
-4.402528585041367
-3.3179713471795367
2.257864401231294
-2.2327590243948228
-3.997868065569686
-2.702383224985112
-1.9098799854217008
2.91941707522592
2.7865040713097624
-3.6027669489844074
-2.6458857929478374
3.8510714297998447
4.343988730827212
-1.6061800698331288
-3.3533815974160017
0.16689858241016875
-4.168588770652139
-0.2985973027058355
0.24083716496460283
-2.018473000186426
3.272235907008934
-1.1270466657346558
1.3247230164051764
-1.8519200838195813
-1.6105987684339071
-3.7195250977581407
-4.409059540248359
0.8573812993030963
-2.94786412554818
-3.0412655520132246
-0.7666197611827164
-4.007420514990219
0.2956103075116143
4.121337155536283
3.6311565764141083
-0.15404781382604948
-2.203409512489065
1.9298890977618015
-0.3589159899826715
-3.7940601602553192
-4.903504665143069
-0.730965598737451
-1.3919847215152972
-1.5630338169048894
4.900114538155433
-1.8837183244414089
-0.21872826801185408
-1.43604294497408
4.275937289845562
-4.5812932051807795
4.9357375543498065
2.6601001720465502
3.5480890726416003
-4.128426041974293
0.32171922978828515
-3.2793516471449156
-2.8405231418990984
4.600243615107345
3.9811490363946387
-3.0617005548890583
-4.385743307704006
2.9282419597883633
3.912212703671571
3.81837698147077
3.3695970562792006
-2.8826726535603875
0.615554380121754
1.3577019286632979
1.4103413197341457
3.790270662878175
1.4853158355105762
-2.966169294149239
3.932947418463989
-4.146850350052475
3.254826711757257
0.5855819305163674
3.293408324642357
-3.038308794507235
1.2910756676599364
4.5802393887628305
4.582048249583899
2.70068913026292
3.9993357052116263
3.493772142566314
2.1908773013594898
4.163568896125584
-1.2729282271594258
2.2420806246492138
0.006433628292236371
0.43465342692539455
2.129322708275616
2.698759610685838
3.203309833853252
-2.6538222986654567
4.25006574934303
-0.5784733283178856
2.4066520958447377
2.5016862524982635
4.10956577658245
4.621592512042374
4.040900827419561
-1.0743442451653595
-1.6698844024741022
-1.1035835297807104
2.899414209041147
-0.13726766815435987
-0.7689679512688521
3.2446787528600254
-3.0675095416113676
-4.687153710964701
3.4332813787128824
0.5386200646981054
-3.6334511896412924
-4.1494969458981545
-3.9912606905393666
-2.9612413240496926
4.950298520896826
-1.8710836607489991
-4.705426029270619
-4.761343697017374
-1.321691282131332
-1.0393156463460782
-2.360407411596366
0.7753848111436357
4.582701826999813
-3.2568773366518364
0.3194525638758492
-0.7285344381787038
4.7940156626535035
0.48417431935240085
-3.7005181800346842
2.0358315682111217
-0.3560182896653039
2.1746213627547286
3.0690782247154065
-2.7078033553451863
4.207645263965929
-2.4890679484458547
-0.4974798969691472
1.940715473350343
-1.798904165481443
-4.3869111622155845
-2.4787433331106055
-0.10403781996127748
-4.195689407514819
-0.5225801318712193
-1.4036940493819339
-1.2968814540664142
-1.5325807056921081
-2.1093489520096775
-1.1712443378594295
-3.368178068376426
-0.013968838045601117
-1.5691866144488618
0.40135609060891664
-0.6688061178848965
3.8969433099867175
-4.1781688472144705
1.2540884704822837
-4.508291155458858
-4.174662468942686
1.2495856775047978
-0.228712801485508
3.2214988173064416
4.8942169973215925
0.3021542416382932
2.9623369064263105
2.1430418091145285
3.3194600178629443
-2.7448315904258456
0.0743359552439804
-3.555073078788782
-3.5636986025956086
-1.208269570073981
-2.180414331519851
0.16333645274021702
-1.817760397577326
-2.772705100512487
4.5538954842157615
2.2615194109573213
4.593352555212515
-4.761107582963837
-1.800648581429105
4.381370597033005
1.4960229213560803
-1.1771915307319594
-1.7096826754041352
-1.7766690552740148
3.665503902138875
-2.2256576922159566
3.6630980199607333
4.893339852033288
-0.23234389406276623
1.461857769272477
-3.1631433210472446
-2.043815481454676
1.917860164095221
4.17067172214878
2.515823363174002
2.8064877666212107
4.125129851952341
-2.2920910731132524
-2.41621780034724
0.2649380823378813
3.529424085170941
-1.9355477602813287
-1.4154835533210042
-4.644825428505712
3.362612330663298
4.792924377401425
1.6257669663502474
1.3052492187428104
4.639342481350372
0.28638389153666655
-3.6947105349304596
-4.38629709250617
-3.181602908190925
-2.612213867490698
1.0574048606356037
-2.5263394315180623
-4.882806638791505
-3.2486675585094127
-4.197359579693992
-0.9974324180009404
-4.770377893468001
3.3649460000418756
2.120422143688727
-1.9290165462118058
3.1174660088907853
2.939393623835292
-1.021161562301601
-1.4977076167044547
0.8010637497720676
2.774639355033935
-1.3387386926811629
0.8221261380290787
2.823430208320529
4.782123392139871
-3.3267051110622994
2.534696371861907
1.1189957379696924
2.6612771987141812
0.05478312053312884
-3.1262558182327584
3.614238547270155
-4.637509973406717
-2.1470086285203047
-1.7016158519337732
-3.8434351962148505
-3.9353582405997556
0.06462878710181208
1.7488225050356938
-1.1554302636752176
3.9322432434789327
-0.9463079269618131
-0.8772633692574949
4.665284051153741
1.3884164085110235
-4.589790341708882
0.13428792869700246
1.7066358322935464
-4.025228010766996
-3.2310266893931217
-3.8994032707915594
3.8736775053016785
3.050422030838021
-3.68104330957983
-2.8734901473634
4.456587833422674
-1.5656582201568714
2.697974896694223
0.4274954162174369
3.01821876488734
-1.2530317675719491
4.743852480998502
-2.0548108432739554
-4.954231213681545
-2.09442692930891
-0.21998961806323258
-4.11490260354303
2.2262234784328943
2.6430120957363084
3.405292998467468
-4.73752443889253
4.746540246785914
4.306693455551098
4.838218429010034
2.38870196154922
1.0800813966057294
-1.5200745039349761
4.195455636192838
-4.537098510803569
-2.1302166616598504
-4.118853637243176
-3.4459148073827803
3.845518898497316
-3.4711082142670966
-1.395612036560665
0.8341296979982573
2.8619837409919953
1.830820491442255
0.8824621322183681
0.48127020887819416
-0.2787247912269839
4.9650448296838885
2.780881458255614
4.332018988403254
3.4360276763852333
3.3399401929505768
-4.057599908207132
0.553978001013701
4.323853980745254
2.5246904706169815
3.6115084917246545
1.6697616368084223
-0.8535077286399133
4.361603515270751
-4.024819350445067
1.8090752069326745
2.326302965440923
-2.326053446034786
-1.1059274749763484
-0.21444055203211487
4.536713131731863
1.4021154895116714
3.126291716419944
4.05913917816274
-3.160524701390599
-1.517114715272474
3.5062614575005675
-1.841536644677836
-3.2221014181702525
4.567044952510766
4.3938494460190185
2.4627235959679616
-1.2590755045378765
-3.6295695543609385
-4.578366421703404
-1.2926987987475314
-0.7012245987172152
3.2001522946349485
0.7878462460042313
-1.0461448744715032
-4.341197062739618
-4.6293476618682945
1.848006009017511
-1.6153753735776197
2.6500741695075423
-0.8911595658991622
3.8472867374577557
0.021813914535266044
-1.4515735081647616
2.5664371420302707
1.7609582269792048
-0.9765535076325582
-2.1756206891487384
-2.985388878967883
-4.8881096830798025
-1.4437179365748518
-3.000448022109816
-2.3813013086414134
-3.3538039254439003
-2.181442564882751
-2.39738609107493
-3.8072321957981323
-2.7223584777143106
1.2509510145849667
-0.6252765317324922
2.552933929217067
3.8457255719885044
-3.0388899791626245
-0.9270936256752123
4.699630464319956
-0.7047771595041414
-4.474578029254472
4.976879987236776
-2.4538902370734705
2.3212445413794436
-1.1026193847472188
-4.125128628472943
1.4099577414686424
0.7201489738252143
3.507908249332859
0.19556636768596203
-4.999624401865233
0.49501307235198055
-1.190252242196502
2.6453549066760527
4.153423009846623
0.24062610010510532
1.0426505317543109
-2.6879855868081526
-0.16557160108280833
-4.576421624769425
-3.356446774972378
2.5133130450941916
3.5750053406097706
-1.9060500123859137
-2.5910915192240958
-3.1901844132900536
-3.189844323672858
1.8880634197689927
-3.083418576211223
1.7958043082180497
0.8254379806006407
-3.6096161940737637
3.2173403781873926
-0.7542471111530391
-1.461661512869108
3.2875894880783427
-3.1157656079793936
-4.359427759884183
4.292805407698225
0.7879023398727503
2.925361923446273
-0.9144576323158029
4.400686454614558
1.7511650709291562
-3.046192779358061
-2.143460418716605
0.4266082399872131
-2.6960747204417848
-1.7430441896397397
-4.587094904822741
-0.07193030450945415
0.3316142544997014
1.6537028718899291
-3.050251704594423
4.389388808476603
-3.5659812919337597
4.188004046716426
-2.480425609257202
-3.626867771078323
-4.552637989167251
4.798169362247208
-1.7842162836052777
-3.3131910363670993
-1.767373207747156
-4.283183891789503
-2.0348024714209467
-0.7006355011512655
2.4224064180721268
-2.0281996008325756
3.063139635470872
-4.382776422191724
0.22020554724272312
0.6594066226872464
0.4799499562086673
3.731829536795752
3.863713732605232
1.5474217287604128
1.166408284075998
-2.739156592943713
-1.2931757227845986
-1.6204058865217852
1.2732226087066465
0.14160901422631156
2.430748763734499
-4.932343072076547
4.395366887932822
-3.730348303682863
3.5206943839741314
1.7728014207078164
-4.923450677368298
3.4971314090733987
-4.6390925595519805
2.159206294387582
-0.7767035664641604
-0.5970643232823125
0.07386143467099782
3.467767698878834
-3.5754063010684147
-0.9070655736655944
4.289362683501633
2.2585719906002852
-0.20446960985850282
0.8575263461506966
0.8721036810844787
-3.8638381547266665
3.4758334920506506
1.8361312337495752
-3.9486389576200045
-1.4092789408555384
2.912757720957031
2.0249871348085104
0.4403305832138118
-0.5771738824499639
4.2866737103677135
4.540975865311424
-1.0314236734018891
4.891022979681171
0.9801157262682985
-0.33797798354254915
-4.504739963478302
-2.086401676631943
-2.6355030493534217
-0.5415904593917178
4.4061265019975835
-0.18568275870860518
3.6553506724641487
-0.6074841526802608
1.9588502780326174
-1.1523418411710598
0.9095355846115529
1.8339045491511383
1.039439103021122
0.14873770104894923
-2.7266236136112596
-1.3311633315635985
1.8719244481689898
-1.671700210221465
-4.635209564841207
0.5038928478203006
-0.4842770710662201
-3.3185868574345703
-1.3943185303211845
0.6771169074603804
4.277413818589904
4.22824333672655
-0.6678511301868229
-4.7923317597407085
1.475672218817925
-1.3396878017551117
-4.330729285853816
-4.247254165614397
2.8422487032240005
1.6451882232484234
-1.9359153201536508
-4.5086842516317285
0.9770973004010468
1.3357454316163029
-3.191053107086108
2.6810869045163894
-4.218287220798016
3.002751208344481
-3.107503128288369
4.458646567518313
1.0487465452836755
1.9892906390727605
-3.9011568459097123
-4.400945913013407
-2.1155837361712306
-0.30019815898817725
-0.008210756627990534
-4.013772383246663
1.993445046919149
-0.7517853591375667
0.2727799466285088
-1.649487934005267
0.5944276177744676
-1.9241763149897864
3.6107273522255383
4.14248601865039
-2.043183568187086
0.8385299107305002
2.7138039025546687
-0.0642758214340775
2.6610830219306623
-3.3661364700093532
4.401419920902471
2.808257540503152
-1.606996329098088
1.2342111001243978
2.305292253444442
1.8473096198078593
1.5747633312536777
0.5455034664289835
2.584618525294643
-4.607970235433685
0.4505915643901517
4.085095614348175
4.7466949137833385
-2.7204022709643336
2.1335395307994975
-4.260517179157443
4.831281993020131
0.45640351440556515
2.4882199289611613
-4.794762149554136
-1.088982136977814
4.759277748349788
0.7738173332936871
1.0280700725476795
-2.281557093993757
1.0117908677721061
1.9544705415914665
-2.4349928083818186
2.8518994532901667
-1.3141795067739945
-1.2562041554945713
0.7347129322335366
-4.274238189929313
-2.1720998483198883
-3.9970153549703937
2.215779619479422
4.050156312499805
-4.637869467476796
-4.4892291751985915
1.9973023461424555
-3.7039753661537302
-1.8154295520962371
-3.7107027882229806
2.543943425855325
1.3371253556656804
2.6303567898754547
4.476435343739611
2.111440211932961
2.326816790029719
1.5374302873014472
-4.498512169256751
1.1311692942866642
2.446704591636518
0.8272507738730734
-3.745889359527448
-3.418354359013085
1.4556019491193908
2.7858294466496822
-3.6550366974828097
2.2422697716336772
-2.524619515825753
4.960952926123042
0.1484375720825435
4.637733094265945
-2.716298630628844
-3.695998163085413
0.9353109328622935
3.5283169002802754
-2.5674099274266493
-4.294415090823137
3.6948265736563695
-0.4274170708439424
-2.7593513836038897
1.4336229813338548
4.509065486970043
-1.6280115249340712
1.0052252498676513
-0.8703301419219986
-1.6324614516028135
-3.934406560975514
1.5427052387347482
1.956753637184999
3.084672437521929
3.3761503978176766
-4.686084478345446
-0.7966094164776614
-1.538369644107962
-3.0195398830473055
2.038767370864486
2.550930309501343
2.526492639901047
4.1097163450204715
-2.045418482010879
4.842938081446857
2.0830277436742426
-0.9306331529504419
-0.17438222510248735
-0.38129705291563365
-2.1975042703528835
-2.720949044284281
4.8575342979184875
-3.4781349576096607
-1.4905075070505314
-4.896971387962159
3.653039001134781
-2.5506324127916455
1.0844503848973899
0.6204290088824713
0.5498425944978544
-0.9628885192702867
-0.6232135591167847
4.599773178362742
-4.006297731280978
3.512496009812775
3.1784846650293552
4.325040252563035
-0.2901681442266266
-4.924890948930117
1.0785088551754507
1.4932080233874414
4.111270887371955
0.3483525438098267
-2.571558383890118
2.741424635828001
-0.1903045332855946
0.4012928599376231
-1.6741042723018618
2.403740122423436
-4.3621271036268014
2.21702038595841
4.535803870041162
-2.2297091863873595
2.671198155679411
-4.987361631155226
-2.8379619195418195
3.5547166680519986
-2.816195489837315
-1.1382304886462369
-1.2805664159041963
2.3242568935983687
4.584820687633755
-2.3557305957142747
3.133928280861344
-0.3458850557664439
-1.548224979116548
3.8404303150929167
0.6399448113200261
-1.2994399524866749
-2.123905189546732
-2.5821628911525227
-1.1696362930157433
2.1422436366467688
3.635140651844587
-2.3794162067337767
0.2731385344999584
0.9159240381568781
4.388642888172306
-2.4022648433249962
-3.9701658504891624
3.9111020118972455
3.5299673921586034
-3.836137948054952
3.3715535377224413
-3.251350737583718
-2.138843796002896
4.242165198477073
0.6780092953923713
3.975712601357241
-0.553035591519305
-1.6172756177785308
-2.792186271023281
-4.700685243852996
4.404816701449022
2.8979642232130987
-1.0934704562457789
-1.4226599436610075
-0.5373974369692736
2.964201054051144
3.9767379187028578
4.874966336471989
-1.233117797440626
4.772459952364137
-1.997920364570466
-1.228703088431268
-2.7707422373355195
-2.8236688715992884
4.455226263279997
3.513948452514704
-0.024136862197714493
0.013172741127192467
3.7420240143929373
2.4828774748804694
1.755208074799981
-1.91686851804835
-0.5907609853714932
-1.1711859636266855
3.30175859110871
-1.4949896893187686
3.0220582287672855
0.6179979821072878
-3.765384671522669
1.8536267144934744
4.908824180183624
2.424135383300583
-3.5378357947578634
-2.5143355877664053
-0.8221848546456103
-2.8485157262907155
-3.130475721059441
0.25195962443835906
-4.632440112253934
-4.99126702913732
2.981772477628832
1.5459385733090025
-0.5137263740848379
2.4221528973419924
0.976977916471526
-0.10696760768696656
3.2902350106187956
-0.04800556569945513
4.207187835005904
-2.7245115548125396
4.173543558404422
-4.362818539319227
3.4662502398862003
-3.128821072996738
1.507389312976799
-3.8551893002525652
2.2940467390860544
0.979338306841969
3.295731661795788
-3.9516478685599834
-2.689774470517369
-0.23632929420443283
-2.2559921102538825
-4.493727088454358
-3.8213064033450603
4.593827041842857
0.6784879092071652
1.1558657041202904
-1.197061040223665
1.8401367135950633
-2.808976081588004
-4.672078063681289
1.508465382578854
-1.4502353053687154
3.3192253741040627
-0.09985235794249459
-1.4744801850601865
4.097236634067205
4.958342307167499
-1.4883823872695547
0.5476590507248797
4.637915593822148
-1.5979737631606028
-1.8136866826542066
2.8119979321071025
-3.759909513265999
1.8252822375685671
3.895141339173996
4.477467061213737
3.926809265643609
-4.617361742204361
3.4789450630939758
4.122779527949557
-3.3573812754577546
-0.7426180289609787
3.633305854367869
-1.3440477211275006
-0.5270752599418316
3.8160601994065075
-4.048098414666176
-0.8920704854617201
-0.33573073844453827
0.9981772342253628
1.5245505138892543
4.018287321639432
3.7605564002932574
0.18257213109031056
-4.273546122379149
-3.636579233935513
2.4018487128273627
-4.771403391241349
-3.3386455089719758
-3.104807961504872
-3.383641781632333
0.07632286265194743
-2.8851962034542353
-1.1451893997114149
2.339331136773829
-4.466454527053376
-3.8893751840338444
1.1020436446394477
0.10215029112436458
-3.211916284034433
0.8413791525160477
-3.9317545118692365
-2.7621204686062475
4.053432166072321
-2.6511747003166675
0.1486223439352976
-4.985670746303042
3.7652595282548003
1.5742834826211638
1.2564319294190884
-3.1640629943449783
-1.3998472888886826
3.3326313158103176
-3.398099095529213
-1.06754339268634
-2.6884705770007855
0.08877686289964526
-0.5919509685729558
0.16372992137814713
3.0161349307533865
3.0516549087866913
1.7178671440136295
4.000144487778618
-2.9030913169732084
-0.35423350149899235
3.277447480854116
1.8884263840238287
0.8414313338448345
4.821927719526448
-4.888192055354842
0.877766847819367
2.1708902845001905
-2.164558541093874
-1.404022031513695
-3.939283323980404
-4.357024113003955
0.2179049644497919
1.7030833909182448
-0.25498101305203935
-1.7405983439087103
0.6220756534584844
3.9098505424376224
-0.22692852368531824
-2.523493553555314
-2.0337770860743998
-4.8356927591836225
-4.377510877239672
0.2750473734118888
4.879791558736825
-4.927642035473397
-4.955037646809912
-2.231759277007821
-0.8943168496582024
4.677645340248159
3.1253056793242386
1.6966027180585215
-0.8346722741664045
-1.7774098972215704
-4.344097000518432
3.1722292851827376
0.034515546992929025
-0.3490147511537609
-1.104069181818088
3.5453281338138076
-3.470734891079179
-2.24629407838889
0.6493049402491877
1.4704883062315144
3.8999331183017016
-3.9092311176416237
-4.617915238083697
-1.1661324640453339
2.1311465704460417
4.198239356374016
-1.3723462381458083
0.5884529225558035
0.28492868458537046
3.1983984697947196
4.773067024234946
-0.706891682763823
-1.0060935103452815
3.7857789145742906
-2.2399207674999833
-0.9834170420505464
-0.2952709723456799
0.5437301757723745
4.2698606854571
-3.9382536058469384
-1.1239815690979285
2.5147043589032076
4.551102695970689
-4.849538367817583
0.9193276593805644
2.5737474398074607
0.9235989225619576
-4.4396173984835325
1.3865884335975185
-2.2779786657223666
3.5055655178059606
2.028117400821734
-2.6973328971260946
-4.4411334095281205
-3.07978613341516
-3.8388029230753373
4.1822986240352265
-3.0909724558460585
1.7001579184817617
-4.8384185021222095
2.9573917806388703
-4.856251827993006
-2.4840235363044236
3.862544144592132
1.0183850670715238
-3.5457302463578975
3.7803150407886434
3.0975979805772056
-2.8198223501215525
0.41683818808784956
-3.927743587190239
-0.8660433066473239
1.0189056373700653
0.08238213671670902
-4.3149463497312
1.597391672276272
0.8024724945841051
-3.6164087666674725
4.0661952989411425
-0.9546689078365214
-3.2699830217269685
0.8045393672973846
-0.4669280629552306
-4.248024448067045
3.360698518960101
-4.081615855368035
-2.8331083374001964
-0.09037977888040505
-2.0621833948450896
-2.686462079318326
-3.1717914750227494
-0.5732568614878506
1.7252984768606936
-1.351333422270641
4.717739776767603
-3.304085001748842
-2.2160366076235496
-1.7879618350873816
3.8141531119965943
1.02396864325077
-3.765670454335772
1.885820733368197
-4.8921229810812275
0.4957028579256413
2.5013856164354777
1.4104952960355615
-3.5991018216102875
-0.5083027400682392
1.875168085491845
3.2397052451622184
3.8457412200750376
2.8874896794519493
1.0156171867228734
-3.878835187250517
2.671035428057989
3.467861026336152
-1.354616363002891
3.9637746591640415
-4.919697742324091
4.143611494977714
-3.2704224369636012
1.5104981693293293
1.1852017386591926
2.6000475950046535
3.3312864724332023
1.0595817364213183
-3.9260712396072286
-2.192462555034841
-1.0888084472796375
-3.038006026422486
-3.5066618961000584
0.4378713957581333
-2.1578014853748186
-4.472611642856559
-1.1616559720616593
-4.275874846284289
-1.9299340635958995
-2.6443695419524493
-2.001429933578285
1.5918705535505104
-0.6503876740755024
3.4773806048967497
4.067984072839906
-3.6170125275950205
2.7504014133821464
-0.09078067146106594
-2.1729083082164813
-3.9757718067329706
2.174136258537981
3.541352831694617
-4.120398245271661
-0.44732219461345935
-0.6155297958748553
4.040101515128754
-3.045493745175565
-0.819079248648408
-0.5394934613624471
-2.242562829092801
-2.3870405291859242
-4.423843916867244
-2.668707572635264
4.587663001943765
0.44620917792031367
-0.5725682171365403
-4.176823351703551
-0.30188055699607563
-4.459242729305791
-0.44828387015259885
-1.9248812861370492
-0.8815411214869142
-2.258975125175561
0.28967493235012043
-4.925113676460371
0.8760751429060951
4.687116355468017
0.33990893690717083
-1.2172245428195163
-2.8274394122740043
0.18334308927919896
-1.458970077903743
0.0828752184924042
-0.6077117571569026
3.716192024626663
2.8890068717999293
2.7616720303989357
-2.4595159946505794
-3.556010055574821
-0.8957319461977153
1.492664369728681
1.6876487649716578
3.62180734337295
-0.469112203837339
4.519702023436267
3.2819290687490046
3.54009334237635
-4.158684773267215
3.8678040741882924
-0.20979478113023564
-2.0919544786659126
2.392380563977711
-1.3748046093108268
-1.9580444899256912
-4.822538091805004
1.7219859044162948
-1.4715723986821114
3.530316373785997
-2.0697716612903694
-2.205740526797996
-4.058610849484597
0.7291135564731146
-2.8408502475334863
4.498405233941384
-4.846689737422877
0.7597484530197276
-4.040525114127647
-0.5023810662231929
-3.9977169059798676
1.178728455514106
-0.25171043111862623
-1.490893379209497
0.27149249232900097
-4.619634597203415
1.9006292343031266
-1.526694925540002
-1.8912564170271464
-3.884196334351546
2.9465870884850887
-1.5667141596826517
-4.260313612010497
-1.1866158346531632
2.7601120584161034
-4.139047235428611
4.230271810593614
-4.348227063526453
-1.5457154582746515
1.703000361654496
-3.158514329359743
3.991438190400734
-1.5730601155633983
-3.687022687397662
-2.908156707479744
-3.404211096468562
-0.104095412489845
-1.8134613329994407
0.8211138233250912
-1.3389922767205578
-4.897493477702146
3.4685939874294256
1.9494003646554816
4.998486138844033
3.525646819038178
-2.3535117202749234
3.447540306161333
2.279898310524545
0.057038597782078426
-3.6333530670695815
4.788459587798419
2.8234791992722483
-1.959241231838058
-0.6282625924747407
3.22453988253981
-1.3507671922799656
2.847135276180129
0.7236306583153871
0.7477107634694002
1.0621792116588864
-1.7876785670227626
3.199697860118965
4.468259509697942
-0.5268406973196695
4.777745452608041
-2.123004745043975
-4.43769373562904
0.2817947735742745
2.7986848676415033
-3.1196154644954532
2.590245539376528
-3.4810850312974506
0.6128935157133668
2.4532358514872223
-0.053789177593381865
-0.30666960926187947
-1.7384970790283338
0.22408536078370478
2.5102814379195584
-1.7454867779174652
-0.14249779941286178
-2.37913482741974
-1.98783255273585
-3.168061872570671
4.959968820095829
2.6551423154121503
-3.795980520386629
2.893248861157481
3.3408984955025716
4.332320681594265
0.37169271955380534
4.778115854641683
4.948024495008054
1.3190794589104593
2.417922586685312
4.965718424724466
-0.5821227979069672
1.6388421002682696
-1.5996299186251264
3.849112297380362
1.2118524513249307
0.3421282730537669
4.262683612446057
2.9564061037510676
2.1629665628261243
1.229584713524111
-0.9841164514184184
-3.1235635881714376
4.318354316048458
3.3544721510969886
2.142208455194611
-4.70085410762781
1.122664868342767
4.56155562951362
0.8254944045808097
2.200972735931437
-0.8986692168004309
-4.109532798468502
3.7965422348491025
2.5850780065371124
4.233337741626549
-1.1012278737447598
0.3384268914407764
-4.007774546375323
2.135892444171219
-4.615647937951588
-3.2473289111580463
2.332864191326335
-1.3838469084241565
2.557516164995394
1.9855009592315138
1.9673141919034531
2.767472670361588
4.311539840898384
2.8870113519792113
3.998925957154391
0.9222228349340602
0.7929704180139456
4.914126850086145
-2.7213774260294255
4.448085187308674
-4.93996735128
-2.9650154964385034
-1.4710398246897851
2.8296963063416447
-0.3066727280236323
-4.175607953755928
-3.8148283769736313
1.7332539181803588
2.0788129847746672
-3.7978675686110597
-1.6164768681450017
3.0293162760752885
-2.225306814135579
-1.0515948197316471
0.12493900591442753
-3.9024028792568832
4.336213959393207
2.4836327809295122
3.8621685356706834
-3.5511511156778597
-2.005634773794487
-1.1950941485325908
2.4402877972036974
2.269122448756545
3.7880969124133035
1.864054483841663
1.8399226665988344
2.4543175889447166
1.8975712730422263
-1.760272340724316
-1.2698685707753752
4.332234246906427
-4.104250017451678
-0.6751650557542206
0.43720580952907184
-2.42226022621022
-1.9336464446084642
4.184185813042751
-2.292555970036898
-4.162271951379978
-3.6721694826949083
-1.6020637267477267
-1.8886138499258456
3.8507835794662455
3.9642668275957647
-4.2390296306234845
2.8509485071667386
0.911802495870786
-2.7359417219812467
0.9919398737045757
3.2711023468912845
-4.447232161536567
-1.7311157051219173
3.4976549148498286
1.1272229733810928
0.7560364578283583
-4.957068902882144
-3.1980435204225977
-2.822323162520981
0.79718603065949
-1.7878863530339437
-0.07581230367194625
3.332936283954149
1.4326655944622306
-2.6834059833369563
-1.2938183957709946
-3.546904960676931
4.0562140737410175
2.735154344072895
0.4587386240884195
-3.967979178659118
-0.5548920888019149
-4.926379325030811
3.16636845740908
3.308796876034899
4.26582161955927
4.649967571487432
-1.705980853582132
1.1757702905769012
0.8819498163461681
-2.0230092700151725
-0.689059242771517
-4.543950538287012
4.75079731184117
4.041861831369989
-2.646889307467296
1.1663672177913007
3.0514096610751427
-0.873295841791057
0.7435264060762474
1.9234607745181922
1.7878242938657714
3.3414432353796872
0.9102175181731074
-4.947771027633299
1.8191546099912648
0.5629642782608162
-1.6344780327391617
4.582284875424431
4.033694416846643
2.450029998060246
2.703246909403507
-2.1294338152646644
-2.213143981991219
2.7415470987831645
-1.3917777912549267
4.261388691612794
0.5950183632761235
-2.5509667666066695
-3.7888608516145963
1.8192399219153286
2.55418170164803
1.9342033801647718
0.31258919419638875
4.9808894009601605
0.6757262085757878
4.537065409130873
0.7967735397824942
4.03071796951116
-0.1826563743998486
-0.8529711542625185
-4.499010599752506
2.9668922492611323
-3.9780240532920086
0.8086306380954369
0.9280765532275916
3.294504876099106
2.511065776384486
2.6578361506762818
-2.0931024054514316
3.8182079462374716
1.9778012870567956
-1.6494984176711283
-4.103672543456361
1.862070640250998
-2.9633910344778647
-2.790277104352551
-0.5754269282612325
0.368865403185751
0.4238814395766335
3.1843620412231104
-1.2554238522705532
-4.00088951641691
1.0827726359663075
-0.45757702888174023
-0.15471370121395722
3.962659916364558
1.283675457252694
4.587395854476291
0.327828426295504
-1.8084847020742947
-1.6299795691173102
-0.41319878347167105
1.9177715578598162
-0.46262995942202867
4.334889137129107
-0.5783328376512653
-2.017391520712868
2.6264034048527503
0.6171784965245166
-4.983524004836458
3.7589019264522587
-3.4219009681862333
2.9145995791581827
2.8735647517464376
1.7424511722415676
0.9083310525290962
-0.9555233575039077
0.8309603476947212
2.7752386015671773
-3.3177429979083763
-3.618247872989687
3.582091491373898
3.282284492072842
3.225576512159213
3.195105089724432
2.518395120975182
3.313760302040791
-0.8319890907536553
4.256932300575377
2.9847011055538086
-3.8833462283751494
2.2423667267476874
-4.499769754393488
4.799483141417632
-4.030249174634884
-4.446356099048307
0.6506688560230254
0.40409463111707744
-3.3618387656116857
3.268336246597544
-0.8120905364153508
-0.09651890413853792
0.3632976570562825
-4.2455501253443
0.06468556671119607
-4.011326906612705
2.675462140084605
1.0513818794919398
4.3204812051371935
-4.0730860768477575
1.9157592729618491
-2.7117691897518705
0.1857474191853905
2.683425404859978
-2.3500163004058883
3.940038875005383
-3.2178591197831996
3.865442437020409
1.6578377997058613
-3.8408223821599297
-1.2122571031974694
3.9544066804106652
-0.3809139627136311
0.7549668951548538
-0.45635488207647334
4.300950870561733
-4.077976561700685
4.9396971599024315
1.1964226059164655
-1.5854456692262584
0.817929660802128
-1.9514328746104983
-4.018962344539247
3.8743400342640903
1.411688647261772
4.615467046788773
0.7176789473974532
-2.140488032363309
-4.093223332375642
-2.492332165079476
-2.5390483296051825
-4.189267385317694
2.4624190822487986
-3.2201516273726227
0.9601599376038896
-2.5379594557124507
3.8918894120852006
1.2384966701491287
-4.930235974324612
3.305918739050478
-1.4529976143465717
-1.2482682294028056
3.3663980167891605
2.0885816464284463
1.098970839815843
-4.468136633498066
-0.596473833510144
2.8915472900902
0.30075364670392624
1.4803115799061493
0.3170689626624963
-3.8260531753100646
4.6248370613218235
-0.7812842361209764
2.1106249092429907
-3.638239555691176
-2.1855071015903182
-0.8067268373836018
2.6339081716011155
-3.2006139903622524
-0.9858560260382347
2.6252924787728995
-4.171106886456945
3.0341952141181423
0.9125917404466568
-1.0002237317268525
3.143271416816466
3.4432523243004436
0.2165008140807636
-4.780241597894377
0.600608381479228
1.7485874151985872
0.8695884723162468
-3.3496897399115544
2.615361142729018
2.657187976913198
4.992834866257535
0.03840248403143676
-3.421226591164497
3.2826106690385597
2.062540612763552
0.6445511467225451
-2.008827149482999
-3.147190331511398
-4.344093804311072
3.5754194153384304
-3.043406452711992
-0.27354778862823714
-3.1231251301758567
1.6183697508437938
-3.59850717267122
1.3654308921701652
-2.7146670772026757
-3.945946973000468
2.867757935438153
-3.730916522598821
0.9294441611387789
-0.9169985606749975
-3.832809330825099
-0.908705797787988
4.109211806550265
-0.7199672160240773
4.7172708127514635
-0.7714867332153137
4.323914942215959
-4.91672915994665
4.222924768419624
-1.8240980904632096
4.782614709801333
-4.967338967086503
4.009012243927417
1.327527511614469
-2.398530508039215
-4.90342113321327
-3.0001279460785635
-1.853230759990935
-4.089869152422816
-3.775174140245828
-1.0003749221145508
4.043267894793024
3.9564545865149707
0.38449344079473224
3.689818054652404
-4.911094678362913
-2.5411510212230857
4.747183527603125
-3.1635620012765155
0.4021346142602997
2.9438578151118966
-1.7451643396427272
-1.6241551344609717
-2.470868591211487
4.7252274868615896
4.165084374225497
0.44316840403587143
-0.18243122471324646
-1.2713298344987365
4.697300339307374
2.2839834431683537
0.8752945823082614
2.1718570298999484
4.72862087857993
2.512812875432785
-4.533462990500174
2.9389070237937407
-2.142773174198669
4.4388454375294994
1.0033715709918942
-2.9311390529920924
1.8116405712839514
-0.7005109738254127
-3.8400406250229633
-3.0870753500660864
0.7197265426708164
-2.9195148074684374
-4.569758689620112
4.219113371143138
2.03242486017718
-0.9232442358964201
-0.5945222060007911
-2.6846576093816754
-3.763532273736846
4.887578335204729
-3.5596219961352937
4.026413197319279
4.456285438777169
3.133387686371572
2.6826034544659283
2.3325877988099775
4.393569121094741
4.731941240991809
3.1866197231606854
-0.795517580387326
-1.3212038939176884
4.942768592546816
-4.816235543173157
-3.7994833093001112
0.5206396534884936
-1.5290531988211633
4.614282604843051
-4.8363792324435835
4.536530953216021
-2.0121419308443955
4.763363116091849
-1.313443051128158
-4.469990529938347
0.5570400160938052
2.5197906933431913
-0.3045258572687617
-1.554466441696846
-1.0229065464810203
2.069652751995868
-4.872990220873338
1.779549317254224
3.5156979688257355
2.1026718407355016
-2.167701063525379
4.430455922967239
-4.969810093843564
-4.826153434021449
-3.13142889187086
1.3524435699611654
1.4732533685678764
-2.800261396112985
0.8109741395770911
-2.5654060588281347
1.6175629709174615
2.0375545563277955
2.8125412098944977
-0.8969171384035395
-3.6714874121508503
4.9950620870490265
2.3865916012643726
-2.3725373063259845
-0.2861837089158321
4.8096916393165685
-3.1968428688164474
-2.415260738502033
2.615557125742746
-4.595790628907556
-4.645421048623043
-1.2040630317890875
4.02046937772724
-1.5162202782791412
-3.9803616248336193
-2.794586906329033
3.2090629635541816
-0.2403256614693392
3.5909295012973956
3.797881564299537
0.11414676507512311
2.1095566809944364
0.986850754232659
-4.593924626728818
4.4799185403159605
-3.1814673195567766
3.9017005499541177
-2.664892086953058
-0.05812146284570474
1.2446405010144534
-4.734503346678437
1.6027176893257389
2.80577265932793
2.69330694664637
3.4985586854615764
4.320364810578827
0.2700600244441045
-4.498788765799535
4.70973509634212
3.8220946649860252
0.2014563242908025
-2.4378066308004898
